{"learner":{"attributes":{"scikit_learn":"{\"_estimator_type\": \"classifier\"}"},"feature_names":[],"feature_types":[],"gradient_booster":{"model":{"cats":{"enc":[],"feature_segments":[],"sorted_idx":[]},"gbtree_model_param":{"num_parallel_tree":"1","num_trees":"200"},"iteration_indptr":[0,1,2,3,4,5,6,7,8,9,10,11,12,13,14,15,16,17,18,19,20,21,22,23,24,25,26,27,28,29,30,31,32,33,34,35,36,37,38,39,40,41,42,43,44,45,46,47,48,49,50,51,52,53,54,55,56,57,58,59,60,61,62,63,64,65,66,67,68,69,70,71,72,73,74,75,76,77,78,79,80,81,82,83,84,85,86,87,88,89,90,91,92,93,94,95,96,97,98,99,100,101,102,103,104,105,106,107,108,109,110,111,112,113,114,115,116,117,118,119,120,121,122,123,124,125,126,127,128,129,130,131,132,133,134,135,136,137,138,139,140,141,142,143,144,145,146,147,148,149,150,151,152,153,154,155,156,157,158,159,160,161,162,163,164,165,166,167,168,169,170,171,172,173,174,175,176,177,178,179,180,181,182,183,184,185,186,187,188,189,190,191,192,193,194,195,196,197,198,199,200],"tree_info":[0,0,0,0,0,0,0,0,0,0,0,0,0,0,0,0,0,0,0,0,0,0,0,0,0,0,0,0,0,0,0,0,0,0,0,0,0,0,0,0,0,0,0,0,0,0,0,0,0,0,0,0,0,0,0,0,0,0,0,0,0,0,0,0,0,0,0,0,0,0,0,0,0,0,0,0,0,0,0,0,0,0,0,0,0,0,0,0,0,0,0,0,0,0,0,0,0,0,0,0,0,0,0,0,0,0,0,0,0,0,0,0,0,0,0,0,0,0,0,0,0,0,0,0,0,0,0,0,0,0,0,0,0,0,0,0,0,0,0,0,0,0,0,0,0,0,0,0,0,0,0,0,0,0,0,0,0,0,0,0,0,0,0,0,0,0,0,0,0,0,0,0,0,0,0,0,0,0,0,0,0,0,0,0,0,0,0,0,0,0,0,0,0,0,0,0,0,0,0,0],"trees":[{"base_weights":[8.37533E-3,-6.549593E-1,2.5817132E0,-9.3136525E-1,1.2580836E0,2.4394639E0,3.5020711E0,5.159087E-1,-5.4665055E-2,2.7329133E0,1.091393E0,1.8361481E0,2.5875952E0,3.0596802E-1,2.5388606E0,1.2203219E0,-9.048688E-2,-3.4861874E-3,3.4437916E0,1.3167434E0,5.8696705E-1,1.0981294E0,2.6797926E0,1.9080268E0,2.7893572E0,1.5481009E-2,2.7672868E0,5.5886877E-1,2.0831652E0,-6.613035E-1,2.8524438E-1,1.9953941E-1,4.5485675E-2,3.3159992E-1,1.4760004E0,1.7623829E-2,1.2365004E0,1.6266576E0,-5.979384E-1,3.1331797E0,5.56181E-1,2.6954978E0,1.2389021E0,2.8855555E0,1.6748292E0,4.169726E-2,2.9115794E0,-2.8529344E-2,6.995203E-2,1.3285083E-1,3.8424473E-2,-4.1671064E-2,8.561032E-3,-3.438742E-2,2.3301972E-2,-3.5539158E-2,4.5656558E-2,9.6002735E-2,4.304191E-2,-1.9100687E-2,5.191293E-2,9.015056E-2,-3.438742E-2,2.528509E-2,9.6649885E-2,-3.7042264E-2,-5.4249465E-3,1.7518322E-1,1.8136157E-2,-3.4861874E-3,4.5485675E-2,1.5066189E-1,1.5481009E-2,-5.5099204E-3,9.187915E-2,7.2480045E-2,1.4697571E-1,-1.4550189E-2,1.1421082E-1,9.506985E-2,1.90921E-1],"categories":[],"categories_nodes":[],"categories_segments":[],"categories_sizes":[],"default_left":[0,0,0,0,0,0,0,0,0,0,0,0,0,0,0,0,0,0,0,0,0,0,0,0,0,0,0,0,0,0,0,0,0,0,0,0,0,0,0,0,0,0,0,0,0,0,0,0,0,0,0,0,0,0,0,0,0,0,0,0,0,0,0,0,0,0,0,0,0,0,0,0,0,0,0,0,0,0,0,0,0],"id":0,"left_children":[1,3,5,7,9,11,13,15,-1,17,19,21,23,-1,25,27,29,-1,31,33,35,37,39,41,43,-1,45,47,49,51,53,-1,-1,55,57,59,61,63,65,67,69,71,73,75,77,-1,79,-1,-1,-1,-1,-1,-1,-1,-1,-1,-1,-1,-1,-1,-1,-1,-1,-1,-1,-1,-1,-1,-1,-1,-1,-1,-1,-1,-1,-1,-1,-1,-1,-1,-1],"loss_changes":[9.8302826E2,2.4328368E2,6.908386E0,9.446088E1,1.1332413E1,4.679138E0,1.8507034E1,1.7622137E1,0E0,1.0696102E1,5.363289E0,1.2152397E1,5.958679E0,0E0,5.040024E0,9.699308E0,5.1133604E0,0E0,2.1997604E0,5.238304E0,6.809789E0,1.4083683E1,8.4809265E0,8.252747E0,1.7368164E0,0E0,4.669876E-1,1.2319569E1,3.9129295E0,1.4919467E0,2.8793123E0,0E0,0E0,4.5105457E0,6.852829E0,4.825767E0,1.0630789E1,2.9439964E0,2.1381295E-1,7.4889374E0,7.458441E-1,6.083725E0,1.1303522E1,2.1972656E-3,9.352196E0,0E0,1.2186356E0,0E0,0E0,0E0,0E0,0E0,0E0,0E0,0E0,0E0,0E0,0E0,0E0,0E0,0E0,0E0,0E0,0E0,0E0,0E0,0E0,0E0,0E0,0E0,0E0,0E0,0E0,0E0,0E0,0E0,0E0,0E0,0E0,0E0,0E0],"parents":[2147483647,0,0,1,1,2,2,3,3,4,4,5,5,6,6,7,7,9,9,10,10,11,11,12,12,14,14,15,15,16,16,18,18,19,19,20,20,21,21,22,22,23,23,24,24,26,26,27,27,28,28,29,29,30,30,33,33,34,34,35,35,36,36,37,37,38,38,39,39,40,40,41,41,42,42,43,43,44,44,46,46],"right_children":[2,4,6,8,10,12,14,16,-1,18,20,22,24,-1,26,28,30,-1,32,34,36,38,40,42,44,-1,46,48,50,52,54,-1,-1,56,58,60,62,64,66,68,70,72,74,76,78,-1,80,-1,-1,-1,-1,-1,-1,-1,-1,-1,-1,-1,-1,-1,-1,-1,-1,-1,-1,-1,-1,-1,-1,-1,-1,-1,-1,-1,-1,-1,-1,-1,-1,-1,-1],"split_conditions":[7.9891926E-1,2.1E1,2.1E1,5E1,4.3E1,8.4588575E-1,8E1,3.5592943E-1,-5.4665055E-2,2.4361345E-1,5.2613133E-1,3.66E2,1.35E2,3.0596802E-1,5.1E1,3.37E2,8E0,-3.4861874E-3,6.9193715E-1,1.16E2,6.63012E-1,8.3525914E-1,3.73E2,9.007305E-1,5.37E2,1.5481009E-2,1.16E2,2.6E1,1.2E1,5.06E2,4.024706E-1,1.9953941E-1,4.5485675E-2,1.2E2,3.15E2,2.3E1,4.57E2,1.16E2,1.4E1,1.7E1,4.36E2,1.09E2,7E0,2.7E1,5.55E2,4.169726E-2,3.93E2,-2.8529344E-2,6.995203E-2,1.3285083E-1,3.8424473E-2,-4.1671064E-2,8.561032E-3,-3.438742E-2,2.3301972E-2,-3.5539158E-2,4.5656558E-2,9.6002735E-2,4.304191E-2,-1.9100687E-2,5.191293E-2,9.015056E-2,-3.438742E-2,2.528509E-2,9.6649885E-2,-3.7042264E-2,-5.4249465E-3,1.7518322E-1,1.8136157E-2,-3.4861874E-3,4.5485675E-2,1.5066189E-1,1.5481009E-2,-5.5099204E-3,9.187915E-2,7.2480045E-2,1.4697571E-1,-1.4550189E-2,1.1421082E-1,9.506985E-2,1.90921E-1],"split_indices":[3,1,1,0,0,3,0,3,0,3,3,5,0,0,5,5,1,0,3,0,3,3,0,3,5,0,0,0,1,5,3,0,0,5,0,1,5,5,1,1,0,0,1,5,5,0,5,0,0,0,0,0,0,0,0,0,0,0,0,0,0,0,0,0,0,0,0,0,0,0,0,0,0,0,0,0,0,0,0,0,0],"split_type":[0,0,0,0,0,0,0,0,0,0,0,0,0,0,0,0,0,0,0,0,0,0,0,0,0,0,0,0,0,0,0,0,0,0,0,0,0,0,0,0,0,0,0,0,0,0,0,0,0,0,0,0,0,0,0,0,0,0,0,0,0,0,0,0,0,0,0,0,0,0,0,0,0,0,0,0,0,0,0,0,0],"sum_hessian":[5.738954E2,4.5687204E2,1.1702336E2,3.996428E2,5.7229233E1,1.045195E2,1.2503866E1,3.999634E1,3.5964645E2,4.2481084E0,5.2981125E1,2.3244366E1,8.127513E1,1.9236717E0,1.0580194E1,1.8034422E1,2.1961918E1,1.0419888E0,3.2061195E0,3.5507774E1,1.747335E1,1.3626008E1,9.618359E0,2.1000084E1,6.0275047E1,1.2022948E0,9.377899E0,1.1141266E1,6.893157E0,8.416063E0,1.3545855E1,2.1641307E0,1.0419888E0,5.37025E0,3.0137524E1,9.858818E0,7.614534E0,1.04198885E1,3.2061195E0,7.534381E0,2.0839777E0,8.255758E0,1.2744326E1,5.4023113E1,6.251933E0,1.1221418E0,8.255758E0,4.8893323E0,6.251933E0,4.0878024E0,2.8053546E0,6.97331E0,1.4427538E0,1.6832128E0,1.1862642E1,1.8435187E0,3.5267315E0,1.6271057E1,1.38664665E1,7.534381E0,2.3244367E0,5.931321E0,1.6832128E0,2.8053546E0,7.614534E0,2.0839777E0,1.1221418E0,6.412239E0,1.1221418E0,1.0419888E0,1.0419888E0,7.053463E0,1.2022948E0,4.1679554E0,8.57637E0,2.9656606E0,5.1057453E1,1.6030598E0,4.6488733E0,5.37025E0,2.8855076E0],"tree_param":{"num_deleted":"0","num_feature":"6","num_nodes":"81","size_leaf_vector":"1"}},{"base_weights":[1.4519373E-2,-1.0692282E0,2.536945E0,-8.374253E-1,-5.46525E-2,3.6410317E-1,4.883829E-1,-5.353564E-2,9.934043E-1,-5.2932656E-1,2.689834E-1,-4.2280562E-2,2.1855772E-1,4.1828337E0,-5.4037865E-2,6.1103385E-2,4.519314E0,1.3078904E-1,2.719582E-1],"categories":[],"categories_nodes":[],"categories_segments":[],"categories_sizes":[],"default_left":[0,0,0,0,0,0,0,0,0,0,0,0,0,0,0,0,0,0,0],"id":1,"left_children":[1,3,5,7,-1,9,-1,-1,11,13,-1,-1,-1,15,-1,-1,17,-1,-1],"loss_changes":[1.5870007E3,1.3270264E0,2.737495E3,1.9053036E1,0E0,6.0864435E2,0E0,0E0,3.6488205E1,3.0505637E2,0E0,0E0,0E0,6.7530212E0,0E0,0E0,4.4974823E0,0E0,0E0],"parents":[2147483647,0,0,1,1,2,2,3,3,5,5,8,8,9,9,13,13,16,16],"right_children":[2,4,6,8,-1,10,-1,-1,12,14,-1,-1,-1,16,-1,-1,18,-1,-1],"split_conditions":[6.999754E-1,4.8E1,7.9891926E-1,2.1E1,-5.46525E-2,2.1E1,4.883829E-1,-5.353564E-2,7.8298604E-1,5E1,2.689834E-1,-4.2280562E-2,2.1855772E-1,8.8E1,-5.4037865E-2,6.1103385E-2,2.6E1,1.3078904E-1,2.719582E-1],"split_indices":[4,0,3,1,0,1,0,0,3,0,0,0,0,5,0,0,0,0,0],"split_type":[0,0,0,0,0,0,0,0,0,0,0,0,0,0,0,0,0,0,0],"sum_hessian":[5.785457E2,4.0508084E2,1.7346484E2,4.11189E1,3.6396194E2,1.3419067E2,3.9274174E1,3.6839878E1,4.279025E0,1.146605E2,1.9530176E1,3.2559671E0,1.0230582E0,1.1322292E1,1.033382E2,1.6281073E0,9.694185E0,4.410607E0,5.283579E0],"tree_param":{"num_deleted":"0","num_feature":"6","num_nodes":"19","size_leaf_vector":"1"}},{"base_weights":[-3.8233297E-3,-1.0654336E0,2.1397314E0,-8.444406E-1,-5.438852E-2,3.4905156E-1,3.2091957E-1,-5.31968E-2,8.207293E-1,-4.9395445E-1,4.1694565E0,-4.173356E-2,1.857406E-1,3.5393786E0,-5.3772386E-2,4.7880015E0,1.5819226E-1,2.0676051E-1,2.0377681E0,1.21408656E-1,2.613829E-1,3.5005666E-2,1.3534616E-1],"categories":[],"categories_nodes":[],"categories_segments":[],"categories_sizes":[],"default_left":[0,0,0,0,0,0,0,0,0,0,0,0,0,0,0,0,0,0,0,0,0,0,0],"id":2,"left_children":[1,3,5,7,-1,9,-1,-1,11,13,15,-1,-1,17,-1,19,-1,-1,21,-1,-1,-1,-1],"loss_changes":[1.3166473E3,9.915161E-1,1.4660486E3,1.5489649E1,0E0,4.4056854E2,0E0,0E0,2.8118454E1,2.675125E2,2.270813E-1,0E0,0E0,4.457855E0,0E0,1.1643677E0,0E0,0E0,3.5313416E0,0E0,0E0,0E0,0E0],"parents":[2147483647,0,0,1,1,2,2,3,3,5,5,8,8,9,9,10,10,13,13,15,15,18,18],"right_children":[2,4,6,8,-1,10,-1,-1,12,14,16,-1,-1,18,-1,20,-1,-1,22,-1,-1,-1,-1],"split_conditions":[6.999754E-1,4.8E1,7.9891926E-1,2.1E1,-5.438852E-2,2.1E1,3.2091957E-1,-5.31968E-2,7.8298604E-1,5E1,1E0,-4.173356E-2,1.857406E-1,4.793817E-1,-5.3772386E-2,7.877658E-1,1.5819226E-1,2.0676051E-1,6.412285E-1,1.21408656E-1,2.613829E-1,3.5005666E-2,1.3534616E-1],"split_indices":[4,0,3,1,0,1,0,0,3,0,2,0,0,3,0,4,0,0,3,0,0,0,0],"split_type":[0,0,0,0,0,0,0,0,0,0,0,0,0,0,0,0,0,0,0,0,0,0,0],"sum_hessian":[5.765866E2,3.8594678E2,1.9063985E2,3.8990578E1,3.4695618E2,1.3515651E2,5.5483334E1,3.4768597E1,4.2219806E0,1.11437546E2,2.371897E1,3.1384165E0,1.0835642E0,1.34007845E1,9.803676E1,1.2356984E1,1.1361985E1,8.33833E0,5.0624547E0,2.9650645E0,9.39192E0,2.3703475E0,2.6921072E0],"tree_param":{"num_deleted":"0","num_feature":"6","num_nodes":"23","size_leaf_vector":"1"}},{"base_weights":[-3.0045256E-2,-6.233203E-1,1.6506599E0,-9.0891623E-1,9.320366E-1,1.6782465E0,4.020529E-2,3.5721454E-1,-5.39202E-2,2.1654375E0,7.659766E-1,1.5936562E0,2.2167037E0,-3.31154E-2,4.491344E-2,1.5488555E0,1.725044E-1,1.8064814E-2,1.21690266E-1,9.071628E-1,2.852369E-1,5.9048605E-1,1.618383E0,2.4340136E0,1.4611495E-2,1.9117451E0,-3.208613E-3,-7.033734E-2,7.6499957E-1,7.413752E-1,1.4068094E0,-3.772551E-1,9.675558E-1,-8.99951E-3,7.034712E-2,1.540347E0,2.005662E0,1.6725789E-1,1.8733099E0,1.8455349E-2,1.1435497E-1,-9.4317E-3,5.300146E-2,-2.8694535E-2,4.81898E-2,5.4358166E-2,6.714783E-3,1.6995149E-2,9.169995E-2,-3.1012092E-2,-4.590697E-3,6.570106E-2,-1.3364084E-2,2.1142209E-2,-1.6332706E-2,7.9113066E-2,1.092474E-2,1.0868434E-1,5.752306E-3,1.0426015E-2,1.0335926E-1],"categories":[],"categories_nodes":[],"categories_segments":[],"categories_sizes":[],"default_left":[0,0,0,0,0,0,0,0,0,0,0,0,0,0,0,0,0,0,0,0,0,0,0,0,0,0,0,0,0,0,0,0,0,0,0,0,0,0,0,0,0,0,0,0,0,0,0,0,0,0,0,0,0,0,0,0,0,0,0,0,0],"id":3,"left_children":[1,3,5,7,9,11,13,15,-1,17,19,21,23,-1,-1,25,27,-1,-1,29,31,33,35,37,-1,39,-1,41,43,45,47,49,51,53,-1,55,57,-1,59,-1,-1,-1,-1,-1,-1,-1,-1,-1,-1,-1,-1,-1,-1,-1,-1,-1,-1,-1,-1,-1,-1],"loss_changes":[5.717454E2,1.8908386E2,6.5789795E0,7.732306E1,1.1907276E1,3.1655579E0,2.7312794E0,9.214784E0,0E0,2.660946E0,3.8083801E0,2.2851868E0,6.568901E0,0E0,0E0,3.4333925E0,5.582168E0,0E0,0E0,2.755867E0,7.173415E0,2.3215933E0,7.466736E-1,1.654892E0,0E0,1.8481407E0,0E0,3.9666235E0,3.548582E0,7.5263214E0,4.0763397E0,5.229869E-1,3.6456633E0,6.475662E-1,0E0,5.746338E0,5.4607086E0,0E0,3.4005585E0,0E0,0E0,0E0,0E0,0E0,0E0,0E0,0E0,0E0,0E0,0E0,0E0,0E0,0E0,0E0,0E0,0E0,0E0,0E0,0E0,0E0,0E0],"parents":[2147483647,0,0,1,1,2,2,3,3,4,4,5,5,6,6,7,7,9,9,10,10,11,11,12,12,15,15,16,16,19,19,20,20,21,21,22,22,23,23,25,25,27,27,28,28,29,29,30,30,31,31,32,32,33,33,35,35,36,36,38,38],"right_children":[2,4,6,8,10,12,14,16,-1,18,20,22,24,-1,-1,26,28,-1,-1,30,32,34,36,38,-1,40,-1,42,44,46,48,50,52,54,-1,56,58,-1,60,-1,-1,-1,-1,-1,-1,-1,-1,-1,-1,-1,-1,-1,-1,-1,-1,-1,-1,-1,-1,-1,-1],"split_conditions":[7.9891926E-1,2.1E1,5.86E2,5E1,4.8E1,2.1E1,3.54E2,8.280075E-2,-5.39202E-2,2.4361345E-1,5.8472276E-1,2.3E1,4.13E2,-3.31154E-2,4.491344E-2,3.6E1,1.5E1,1.8064814E-2,1.21690266E-1,4.78E2,6.875901E-1,1.6E1,5.15E2,8E1,1.4611495E-2,1.8E1,-3.208613E-3,5.55E2,8.8E1,2.95E2,1.9669569E-1,2.64E2,4.17E2,8.808153E-1,7.034712E-2,4.99E2,4.11E2,1.6725789E-1,7.1E1,1.8455349E-2,1.1435497E-1,-9.4317E-3,5.300146E-2,-2.8694535E-2,4.81898E-2,5.4358166E-2,6.714783E-3,1.6995149E-2,9.169995E-2,-3.1012092E-2,-4.590697E-3,6.570106E-2,-1.3364084E-2,2.1142209E-2,-1.6332706E-2,7.9113066E-2,1.092474E-2,1.0868434E-1,5.752306E-3,1.0426015E-2,1.0335926E-1],"split_indices":[3,1,5,0,0,1,0,3,0,3,3,5,0,0,0,0,1,0,0,5,3,1,5,0,0,0,0,5,5,5,3,0,5,3,0,5,0,0,5,0,0,0,0,0,0,0,0,0,0,0,0,0,0,0,0,0,0,0,0,0,0],"split_type":[0,0,0,0,0,0,0,0,0,0,0,0,0,0,0,0,0,0,0,0,0,0,0,0,0,0,0,0,0,0,0,0,0,0,0,0,0,0,0,0,0,0,0,0,0,0,0,0,0,0,0,0,0,0,0,0,0,0,0,0,0],"sum_hessian":[5.713647E2,4.2276224E2,1.4860246E2,3.5752823E2,6.523402E1,1.4605841E2,2.5440373E0,4.2078667E1,3.154496E2,6.3119893E0,5.8922024E1,1.2965033E2,1.6408096E1,1.524245E0,1.0197923E0,4.655942E0,3.742272E1,1.1211529E0,5.1908364E0,4.486022E1,1.4061803E1,3.7173624E0,1.2593296E2,1.4505392E1,1.9027033E0,3.6496701E0,1.0062717E0,2.7168608E1,1.0254116E1,3.5548637E1,9.311582E0,7.3614054E0,6.700398E0,2.7137563E0,1.0036061E0,1.08955894E2,1.697707E1,3.6340528E0,1.087134E1,1.1023926E0,2.5472777E0,2.5348883E1,1.8197243E0,1.081746E0,9.17237E0,2.214449E1,1.3404149E1,3.1757677E0,6.135814E0,3.342836E0,4.0185695E0,5.1822577E0,1.5181402E0,1.0098057E0,1.7039506E0,1.05416275E2,3.5396183E0,1.5453909E1,1.5231599E0,1.3504744E0,9.520865E0],"tree_param":{"num_deleted":"0","num_feature":"6","num_nodes":"61","size_leaf_vector":"1"}},{"base_weights":[8.160814E-3,-5.9687644E-1,1.5455338E0,-9.039475E-1,9.803982E-1,1.4677634E0,2.025688E0,3.179144E-1,-5.369814E-2,1.8589088E0,8.583212E-1,1.1001365E0,1.5403402E0,1.5167889E-1,1.565493E0,8.112841E-1,-1.410479E-1,1.7446756E-2,2.078913E0,3.1227964E-1,9.289182E-1,3.0400798E-2,1.3001658E0,4.8133925E-1,1.555831E0,-4.435062E-3,1.6904866E0,4.3275604E-1,1.6291237E0,-3.1072405E-1,8.494107E-1,1.1682828E-1,3.2255795E-2,7.8466445E-1,-3.7554435E-2,1.892891E0,8.203302E-1,3.3364918E-2,-4.9915776E-1,1.3904228E0,-8.362551E-3,-6.3143536E-3,4.312963E-2,1.7797563E0,1.3718469E0,1.2372493E0,1.1020663E-1,-2.936408E-2,4.8983738E-2,1.17755465E-1,1.817984E-2,1.17082745E-2,-2.2028388E-2,-9.705328E-3,7.653502E-2,-2.9629216E-2,6.014171E-2,1.8455189E-2,1.12616315E-1,-1.5857028E-2,4.8160788E-2,-3.2203153E-2,-4.2207725E-3,4.8679914E-2,8.2932666E-2,9.8325066E-2,3.015532E-2,4.19488E-2,7.682004E-2,8.675175E-2,-2.1617736E-3],"categories":[],"categories_nodes":[],"categories_segments":[],"categories_sizes":[],"default_left":[0,0,0,0,0,0,0,0,0,0,0,0,0,0,0,0,0,0,0,0,0,0,0,0,0,0,0,0,0,0,0,0,0,0,0,0,0,0,0,0,0,0,0,0,0,0,0,0,0,0,0,0,0,0,0,0,0,0,0,0,0,0,0,0,0,0,0,0,0,0,0],"id":4,"left_children":[1,3,5,7,9,11,13,15,-1,17,19,21,23,-1,25,27,29,-1,31,33,35,37,39,41,43,-1,45,47,49,51,53,-1,-1,55,-1,57,59,-1,61,63,-1,-1,-1,65,67,69,-1,-1,-1,-1,-1,-1,-1,-1,-1,-1,-1,-1,-1,-1,-1,-1,-1,-1,-1,-1,-1,-1,-1,-1,-1],"loss_changes":[5.3201996E2,1.9967856E2,3.0584106E0,7.1818665E1,5.6291046E0,2.111267E0,4.4739914E0,9.806016E0,0E0,1.7199535E0,2.0615578E0,5.7414207E0,1.1643372E0,0E0,3.3998299E0,5.7264147E0,4.1334743E0,0E0,7.916508E-1,4.8543377E0,4.0487785E0,2.1138706E0,3.2438965E0,8.338722E-1,2.2754822E0,0E0,6.8665695E-1,9.257911E0,4.850479E0,1.5457511E0,2.8816535E0,0E0,0E0,4.380276E0,0E0,1.717104E0,8.409214E0,0E0,1.5326893E-1,7.919121E-1,0E0,0E0,0E0,9.422501E0,4.604927E0,6.493349E0,0E0,0E0,0E0,0E0,0E0,0E0,0E0,0E0,0E0,0E0,0E0,0E0,0E0,0E0,0E0,0E0,0E0,0E0,0E0,0E0,0E0,0E0,0E0,0E0,0E0],"parents":[2147483647,0,0,1,1,2,2,3,3,4,4,5,5,6,6,7,7,9,9,10,10,11,11,12,12,14,14,15,15,16,16,18,18,19,19,20,20,21,21,22,22,23,23,24,24,26,26,27,27,28,28,29,29,30,30,33,33,35,35,36,36,38,38,39,39,43,43,44,44,45,45],"right_children":[2,4,6,8,10,12,14,16,-1,18,20,22,24,-1,26,28,30,-1,32,34,36,38,40,42,44,-1,46,48,50,52,54,-1,-1,56,-1,58,60,-1,62,64,-1,-1,-1,66,68,70,-1,-1,-1,-1,-1,-1,-1,-1,-1,-1,-1,-1,-1,-1,-1,-1,-1,-1,-1,-1,-1,-1,-1,-1,-1],"split_conditions":[7.9891926E-1,2.1E1,2.1E1,5E1,4.8E1,9.2E1,8E1,3.5592943E-1,-5.369814E-2,2.4361345E-1,1.15E2,1E2,8.0250126E-1,1.5167889E-1,1.12E2,4.26E2,7.480742E-1,1.7446756E-2,6.9193715E-1,9.5E1,1.43E2,2.6E1,8.9E1,2.84E2,2.6E2,-4.435062E-3,3.95E2,2E1,3.3E1,1E1,3.88E2,1.1682828E-1,3.2255795E-2,1.6363396E-1,-3.7554435E-2,2.2E1,1.76E2,3.3364918E-2,9.4574785E-1,3.49E2,-8.362551E-3,-6.3143536E-3,4.312963E-2,1.8E1,3.28E2,2.45E2,1.1020663E-1,-2.936408E-2,4.8983738E-2,1.17755465E-1,1.817984E-2,1.17082745E-2,-2.2028388E-2,-9.705328E-3,7.653502E-2,-2.9629216E-2,6.014171E-2,1.8455189E-2,1.12616315E-1,-1.5857028E-2,4.8160788E-2,-3.2203153E-2,-4.2207725E-3,4.8679914E-2,8.2932666E-2,9.8325066E-2,3.015532E-2,4.19488E-2,7.682004E-2,8.675175E-2,-2.1617736E-3],"split_indices":[3,1,1,0,0,0,0,3,0,3,0,5,3,0,0,5,3,0,3,0,0,0,0,0,0,0,5,0,0,0,5,0,0,3,0,1,0,0,3,5,0,0,0,1,0,5,0,0,0,0,0,0,0,0,0,0,0,0,0,0,0,0,0,0,0,0,0,0,0,0,0],"split_type":[0,0,0,0,0,0,0,0,0,0,0,0,0,0,0,0,0,0,0,0,0,0,0,0,0,0,0,0,0,0,0,0,0,0,0,0,0,0,0,0,0,0,0,0,0,0,0,0,0,0,0,0,0,0,0,0,0,0,0,0,0,0,0,0,0,0,0,0,0,0,0],"sum_hessian":[5.699695E2,4.094436E2,1.6052588E2,3.4307843E2,6.636518E1,1.4164117E2,1.88847E1,4.1800156E1,3.0127826E2,6.361092E0,6.000409E1,2.6016531E1,1.1562464E2,4.166831E0,1.4717869E1,1.9775007E1,2.2025148E1,1.1378218E0,5.2232704E0,7.4905896E0,5.25135E1,4.279922E0,2.173661E1,2.1293244E0,1.13495316E2,1.0543746E0,1.3663494E1,1.4563566E1,5.2114415E0,1.9389757E1,2.63539E0,3.8939037E0,1.3293666E0,5.368024E0,2.1225657E0,3.6529696E0,4.886053E1,1.8249545E0,2.4549675E0,2.0526543E1,1.2100668E0,1.0787748E0,1.0505497E0,4.727902E1,6.62163E1,9.069445E0,4.5940495E0,5.0573993E0,9.506167E0,2.764551E0,2.4468908E0,3.576697E0,1.5813061E1,1.3234216E0,1.3119684E0,1.1531184E0,4.2149053E0,1.0840701E0,2.5688996E0,5.3166523E0,4.354388E1,1.4095621E0,1.0454054E0,9.849825E0,1.0676718E1,4.0223858E1,7.0551634E0,1.7062311E1,4.9153988E1,6.27505E0,2.7943947E0],"tree_param":{"num_deleted":"0","num_feature":"6","num_nodes":"71","size_leaf_vector":"1"}},{"base_weights":[8.7989755E-3,-1.0575581E0,1.8683898E0,-5.407971E-2,-8.842787E-1,4.154808E-1,2.1781757E-1,-5.3616483E-2,-9.105368E-2,-4.8226437E-1,1.6090398E-1,6.472677E-1,-6.4837205E-1,9.9306434E-1,-5.275294E-1,7.555727E-2,-4.2288458E-1,-4.3672353E-2,-3.107168E-3,-8.097588E-3,8.7266624E-2,-3.4285557E-1,-6.6543555E-1,-2.7884716E-2,-3.985941E-3,-2.1624854E-2,3.8866722E-3,-3.7739962E-2,-9.883474E-3],"categories":[],"categories_nodes":[],"categories_segments":[],"categories_sizes":[],"default_left":[0,0,0,0,0,0,0,0,0,0,0,0,0,0,0,0,0,0,0,0,0,0,0,0,0,0,0,0,0],"id":5,"left_children":[1,3,5,-1,7,9,-1,-1,11,13,-1,15,17,19,21,-1,23,-1,-1,-1,-1,25,27,-1,-1,-1,-1,-1,-1],"loss_changes":[1.1335762E3,5.567932E-1,7.5127704E2,0E0,7.321846E0,3.3525748E2,0E0,0E0,4.7915807E0,7.290369E0,0E0,5.326797E0,8.105109E-1,3.2048273E0,2.2921524E0,0E0,9.646869E-2,0E0,0E0,0E0,0E0,1.70645E0,2.1745853E0,0E0,0E0,0E0,0E0,0E0,0E0],"parents":[2147483647,0,0,1,1,2,2,4,4,5,5,8,8,9,9,11,11,12,12,13,13,14,14,16,16,21,21,22,22],"right_children":[2,4,6,-1,8,10,-1,-1,12,14,-1,16,18,20,22,-1,24,-1,-1,-1,-1,26,28,-1,-1,-1,-1,-1,-1],"split_conditions":[6.999754E-1,2.1E1,7.9891926E-1,-5.407971E-2,8.094803E-1,2.1E1,2.1781757E-1,-5.3616483E-2,2.06E2,1.4675349E-2,1.6090398E-1,2.1446164E-1,4.24E2,2.93E2,3.5592943E-1,7.555727E-2,9.0580314E-1,-4.3672353E-2,-3.107168E-3,-8.097588E-3,8.7266624E-2,2.8752714E-1,5.01E2,-2.7884716E-2,-3.985941E-3,-2.1624854E-2,3.8866722E-3,-3.7739962E-2,-9.883474E-3],"split_indices":[4,1,3,0,3,1,0,0,5,3,0,4,5,5,3,0,3,0,0,0,0,3,5,0,0,0,0,0,0],"split_type":[0,0,0,0,0,0,0,0,0,0,0,0,0,0,0,0,0,0,0,0,0,0,0,0,0,0,0,0,0],"sum_hessian":[5.696541E2,3.623187E2,2.0733542E2,3.1357913E2,4.8739567E1,1.3163232E2,7.570309E1,3.9114727E1,9.624841E0,1.00323906E2,3.1308428E1,4.070693E0,5.5541477E0,2.3631365E0,9.796077E1,2.0244093E0,2.0462835E0,3.6592743E0,1.8948736E0,1.241571E0,1.1215656E0,4.336955E1,5.4591217E1,1.0203158E0,1.0259677E0,3.5726692E1,7.6428595E0,4.5319576E1,9.271643E0],"tree_param":{"num_deleted":"0","num_feature":"6","num_nodes":"29","size_leaf_vector":"1"}},{"base_weights":[-7.0794737E-3,-1.0519526E0,1.6745391E0,-8.132544E-1,-5.3916197E-2,1.3285592E0,1.457516E-1,-5.284957E-2,6.5311503E-1,3.1240766E0,1.0503095E0,1.4559454E0,-2.7824202E-1,1.6081598E-1,5.9789535E-2,1.235887E0,8.350046E-1,8.883847E-2,1.8633695E-2,-3.3888754E-2,1.704861E-2,1.4199498E0,1.0599285E0,6.308881E-1,1.2223159E0,4.4096727E-2,8.088236E-2,2.522238E-2,6.3696146E-2,7.497608E-2,2.5051767E-2,-6.083924E-3,6.470404E-2],"categories":[],"categories_nodes":[],"categories_segments":[],"categories_sizes":[],"default_left":[0,0,0,0,0,0,0,0,0,0,0,0,0,0,0,0,0,0,0,0,0,0,0,0,0,0,0,0,0,0,0,0,0],"id":6,"left_children":[1,3,5,7,-1,9,-1,-1,11,13,15,17,19,-1,-1,21,23,-1,-1,-1,-1,25,27,29,31,-1,-1,-1,-1,-1,-1,-1,-1],"loss_changes":[9.911228E2,1.3130188E0,8.890503E1,1.45149765E1,0E0,8.208389E1,0E0,0E0,4.989443E0,1.4175415E-1,4.9392853E0,5.379605E-1,1.1410007E0,0E0,0E0,1.0270386E0,4.941883E0,0E0,0E0,0E0,0E0,2.324463E0,4.5775146E0,4.8197536E0,2.4601288E0,0E0,0E0,0E0,0E0,0E0,0E0,0E0,0E0],"parents":[2147483647,0,0,1,1,2,2,3,3,5,5,8,8,9,9,10,10,11,11,12,12,15,15,16,16,21,21,22,22,23,23,24,24],"right_children":[2,4,6,8,-1,10,-1,-1,12,14,16,18,20,-1,-1,22,24,-1,-1,-1,-1,26,28,30,32,-1,-1,-1,-1,-1,-1,-1,-1],"split_conditions":[6.999754E-1,4.8E1,2.1E1,2.1E1,-5.3916197E-2,5.4E1,1.457516E-1,-5.284957E-2,2.3754764E-1,9.6910167E-1,1E0,2.2E1,5.955112E-1,1.6081598E-1,5.9789535E-2,2.41E2,9.0774995E-1,8.883847E-2,1.8633695E-2,-3.3888754E-2,1.704861E-2,1.18E2,3.28E2,7.186978E-1,4.9E1,4.4096727E-2,8.088236E-2,2.522238E-2,6.3696146E-2,7.497608E-2,2.5051767E-2,-6.083924E-3,6.470404E-2],"split_indices":[4,0,1,1,0,0,0,0,4,4,2,1,4,0,0,0,4,0,0,0,0,0,0,4,5,0,0,0,0,0,0,0,0],"split_type":[0,0,0,0,0,0,0,0,0,0,0,0,0,0,0,0,0,0,0,0,0,0,0,0,0,0,0,0,0,0,0,0,0],"sum_hessian":[5.620719E2,3.469001E2,2.151718E2,3.7680218E1,3.0921988E2,1.6986623E2,4.530558E1,3.254914E1,5.131075E0,2.1419664E1,1.4844656E2,2.4531803E0,2.6778944E0,1.9804321E1,1.6153425E0,7.718147E1,7.126508E1,1.3987385E0,1.0544419E0,1.5701927E0,1.1077017E0,3.4266705E1,4.2914772E1,4.839132E1,2.2873764E1,1.0675465E1,2.3591238E1,1.2868456E1,3.0046316E1,4.9215283E0,4.3469788E1,1.1242149E0,2.1749548E1],"tree_param":{"num_deleted":"0","num_feature":"6","num_nodes":"33","size_leaf_vector":"1"}},{"base_weights":[-1.5248952E-2,-5.8660567E-1,1.2718617E0,-8.913148E-1,7.149603E-1,9.3897384E-1,1.3514953E0,2.452058E-1,-5.3251125E-2,1.67579E0,5.841384E-1,-1.6179033E-2,1.0070508E0,1.2770165E0,1.6800945E0,6.5092105E-1,-1.5406933E-1,1.5233199E-2,1.8608292E0,7.2331315E-1,1.3713835E-1,-2.9632398E-3,1.0695853E0,8.66379E-1,1.342254E0,1.3366382E-1,1.445141E0,-1.806851E-1,9.580896E-1,-6.5324026E-1,7.2421536E-2,2.8643072E-2,1.032501E-1,-2.838642E-2,7.6098436E-1,-4.7152296E-1,5.7385623E-1,1.3461245E0,7.5829476E-1,-1.0727271E-2,9.594198E-1,1.2912071E-2,1.3604954E0,1.4845008E0,1.839031E-2,3.403025E-2,-3.2854713E-2,-1.2296423E-2,5.4855417E-2,-3.7173055E-2,-3.1540417E-3,-4.324946E-3,5.2211087E-2,4.792165E-2,1.9321559E-2,-5.328989E-3,-3.4209173E-2,4.3816727E-2,-3.3954896E-2,2.2182126E-2,7.4897945E-2,4.3616045E-2,-2.8027797E-2,7.057627E-2,3.185897E-2,6.9426164E-2,4.1816913E-2,7.726096E-2,1.4351082E-2],"categories":[],"categories_nodes":[],"categories_segments":[],"categories_sizes":[],"default_left":[0,0,0,0,0,0,0,0,0,0,0,0,0,0,0,0,0,0,0,0,0,0,0,0,0,0,0,0,0,0,0,0,0,0,0,0,0,0,0,0,0,0,0,0,0,0,0,0,0,0,0,0,0,0,0,0,0,0,0,0,0,0,0,0,0,0,0,0,0],"id":7,"left_children":[1,3,5,7,9,11,13,15,-1,17,19,-1,21,23,25,27,29,-1,31,33,35,-1,37,39,41,-1,43,45,47,49,51,-1,-1,-1,53,55,57,59,61,-1,63,-1,65,67,-1,-1,-1,-1,-1,-1,-1,-1,-1,-1,-1,-1,-1,-1,-1,-1,-1,-1,-1,-1,-1,-1,-1,-1,-1],"loss_changes":[4.130357E2,1.5489842E2,3.3083801E0,6.2571503E1,8.365498E0,3.4724617E0,1.2089691E0,7.0104036E0,0E0,1.5575924E0,4.0668697E0,0E0,2.3958855E0,1.9421234E0,1.3073311E0,5.6266546E0,2.5693777E0,0E0,7.057438E-1,2.9042892E0,4.824964E0,0E0,1.828125E0,2.0875206E0,1.5903931E0,0E0,3.0612183E-1,3.155383E0,2.9059477E0,3.2913852E-1,2.5992436E0,0E0,0E0,0E0,3.3139915E0,5.2519214E-1,4.546862E0,1.5601349E0,3.1746626E0,0E0,1.6370239E0,0E0,2.5401306E-1,9.42173E-1,0E0,0E0,0E0,0E0,0E0,0E0,0E0,0E0,0E0,0E0,0E0,0E0,0E0,0E0,0E0,0E0,0E0,0E0,0E0,0E0,0E0,0E0,0E0,0E0,0E0],"parents":[2147483647,0,0,1,1,2,2,3,3,4,4,5,5,6,6,7,7,9,9,10,10,12,12,13,13,14,14,15,15,16,16,18,18,19,19,20,20,22,22,23,23,24,24,26,26,27,27,28,28,29,29,30,30,34,34,35,35,36,36,37,37,38,38,40,40,42,42,43,43],"right_children":[2,4,6,8,10,12,14,16,-1,18,20,-1,22,24,26,28,30,-1,32,34,36,-1,38,40,42,-1,44,46,48,50,52,-1,-1,-1,54,56,58,60,62,-1,64,-1,66,68,-1,-1,-1,-1,-1,-1,-1,-1,-1,-1,-1,-1,-1,-1,-1,-1,-1,-1,-1,-1,-1,-1,-1,-1,-1],"split_conditions":[7.9891926E-1,2.1E1,5E0,5E1,4.8E1,2.9E1,2.1E1,3.5592943E-1,-5.3251125E-2,2.6003236E-1,5.8472276E-1,-1.6179033E-2,4.9E1,7.8E1,5E1,1.7E1,6E0,1.5233199E-2,8E0,6.4E1,6.6761833E-1,-2.9632398E-3,2.35E2,7E0,8.0250126E-1,1.3366382E-1,4.63E2,6E0,5.3E1,3.8E1,4.6E1,2.8643072E-2,1.032501E-1,-2.838642E-2,3.31E2,2.7E2,4.55E2,1E0,9.776442E-1,-1.0727271E-2,1.1E1,1.2912071E-2,4.67E2,9.776442E-1,1.839031E-2,3.403025E-2,-3.2854713E-2,-1.2296423E-2,5.4855417E-2,-3.7173055E-2,-3.1540417E-3,-4.324946E-3,5.2211087E-2,4.792165E-2,1.9321559E-2,-5.328989E-3,-3.4209173E-2,4.3816727E-2,-3.3954896E-2,2.2182126E-2,7.4897945E-2,4.3616045E-2,-2.8027797E-2,7.057627E-2,3.185897E-2,6.9426164E-2,4.1816913E-2,7.726096E-2,1.4351082E-2],"split_indices":[3,1,1,0,0,0,1,3,0,3,3,0,5,0,0,0,1,0,0,0,3,0,0,1,3,0,0,0,5,0,0,0,0,0,0,0,5,1,3,0,1,0,0,3,0,0,0,0,0,0,0,0,0,0,0,0,0,0,0,0,0,0,0,0,0,0,0,0,0],"split_type":[0,0,0,0,0,0,0,0,0,0,0,0,0,0,0,0,0,0,0,0,0,0,0,0,0,0,0,0,0,0,0,0,0,0,0,0,0,0,0,0,0,0,0,0,0,0,0,0,0,0,0,0,0,0,0,0,0,0,0,0,0,0,0,0,0,0,0,0,0],"sum_hessian":[5.596337E2,3.8796E2,1.716737E2,3.146197E2,7.33403E1,3.5609295E1,1.360644E2,4.1657143E1,2.7296255E2,7.373734E0,6.596657E1,1.6298037E0,3.3979492E1,1.1490647E2,2.1157932E1,2.034933E1,2.1307812E1,1.1914761E0,6.182258E0,4.9832825E1,1.6133747E1,1.8852497E0,3.2094242E1,1.7710176E1,9.71963E1,2.0623205E0,1.9095612E1,5.6000166E0,1.4749314E1,6.062432E0,1.524538E1,1.3666831E0,4.8155746E0,1.0139165E0,4.881891E1,6.706744E0,9.427003E0,1.5235368E1,1.6858875E1,1.3000922E0,1.6410086E1,1.8593551E0,9.533694E1,1.8057936E1,1.0376756E0,1.8417469E0,3.7582698E0,1.44711E0,1.3302204E1,5.033215E0,1.029217E0,1.3885627E1,1.3597535E0,3.09464E1,1.7872507E1,3.0219674E0,3.6847768E0,7.8359056E0,1.5910971E0,2.7588768E0,1.2476491E1,1.5828905E1,1.0299712E0,5.422262E0,1.0987823E1,8.893248E1,6.4044576E0,1.6910112E1,1.1478229E0],"tree_param":{"num_deleted":"0","num_feature":"6","num_nodes":"69","size_leaf_vector":"1"}},{"base_weights":[-2.1418866E-2,-1.050475E0,1.4738061E0,-5.363941E-2,-8.984314E-1,3.176605E-1,1.6756824E-1,-5.327515E-2,-2.3929848E-1,-4.4700077E-1,2.2429585E0,4.6048358E-1,-7.9827744E-1,8.792678E-1,-4.9586728E-1,1.7511363E0,1.237243E-1,6.3149944E-2,-4.7674674E-1,-9.387433E-3,-4.5297496E-2,-8.098518E-3,6.99645E-2,-5.8776325E-1,3.5829719E-3,-8.88393E-3,1.9016515E0,-3.0770097E-2,-4.4009304E-3,-1.9706763E-2,-3.676475E-2,2.6224269E-2,-1.2127881E-2,4.6522375E-2,1.0913801E-1],"categories":[],"categories_nodes":[],"categories_segments":[],"categories_sizes":[],"default_left":[0,0,0,0,0,0,0,0,0,0,0,0,0,0,0,0,0,0,0,0,0,0,0,0,0,0,0,0,0,0,0,0,0,0,0],"id":8,"left_children":[1,3,5,-1,7,9,-1,-1,11,13,15,17,19,21,23,25,-1,-1,27,-1,-1,-1,-1,29,31,-1,33,-1,-1,-1,-1,-1,-1,-1,-1],"loss_changes":[8.614582E2,1.6125488E-1,4.943938E2,0E0,5.0960617E0,2.1059314E2,0E0,0E0,4.7156253E0,7.0939293E0,2.9403687E-1,4.79179E0,2.6018047E-1,2.3985634E0,4.578932E0,5.1070213E0,0E0,0E0,1.23455524E-1,0E0,0E0,0E0,0E0,2.1162815E0,2.24153E0,0E0,2.1526527E0,0E0,0E0,0E0,0E0,0E0,0E0,0E0,0E0],"parents":[2147483647,0,0,1,1,2,2,4,4,5,5,8,8,9,9,10,10,11,11,12,12,13,13,14,14,15,15,18,18,23,23,24,24,26,26],"right_children":[2,4,6,-1,8,10,-1,-1,12,14,16,18,20,22,24,26,-1,-1,28,-1,-1,-1,-1,30,32,-1,34,-1,-1,-1,-1,-1,-1,-1,-1],"split_conditions":[6.999754E-1,2.1E1,7.9891926E-1,-5.363941E-2,8.094803E-1,2.1E1,1.6756824E-1,-5.327515E-2,2.06E2,1.8551212E-2,8.3024794E-1,2.1446164E-1,8.3921844E-1,2.93E2,5.01E2,5.7E1,1.237243E-1,6.3149944E-2,5.712435E-1,-9.387433E-3,-4.5297496E-2,-8.098518E-3,6.99645E-2,3.515735E-1,8.07059E-1,-8.88393E-3,1.8551217E-1,-3.0770097E-2,-4.4009304E-3,-1.9706763E-2,-3.676475E-2,2.6224269E-2,-1.2127881E-2,4.6522375E-2,1.0913801E-1],"split_indices":[4,1,3,0,3,1,0,0,5,3,4,4,3,5,5,5,0,0,4,0,0,0,0,3,4,0,3,0,0,0,0,0,0,0,0],"split_type":[0,0,0,0,0,0,0,0,0,0,0,0,0,0,0,0,0,0,0,0,0,0,0,0,0,0,0,0,0,0,0,0,0,0,0],"sum_hessian":[5.578656E2,3.306206E2,2.2724498E2,2.8302893E2,4.7591663E1,1.4136545E2,8.587953E1,3.7476025E1,1.0115639E1,1.0172976E2,3.963569E1,4.5703073E0,5.545332E0,3.0111778E0,9.871858E1,1.542741E1,2.4208279E1,2.274851E0,2.2954562E0,1.242689E0,4.302643E0,1.2322935E0,1.7788843E0,8.322825E1,1.5490335E1,1.1036712E0,1.4323739E1,1.2621458E0,1.0333105E0,3.7579098E1,4.564915E1,4.6078973E0,1.0882438E1,4.1827292E0,1.014101E1],"tree_param":{"num_deleted":"0","num_feature":"6","num_nodes":"35","size_leaf_vector":"1"}},{"base_weights":[-1.1740105E-2,-1.0419943E0,1.3905268E0,-8.0046207E-1,-5.351674E-2,2.2593084E-1,1.4974366E-1,-5.234471E-2,4.3722147E-1,-4.5208174E-1,1.9397681E0,-4.4354804E-2,1.2510554E-1,2.4566314E0,-5.2826423E-2,1.4772846E-1,1.6496556E0,2.9418817E0,1.2028527E0,1.336803E0,2.5118184E0,1.6144508E-1,4.7845352E-2,9.38296E-2,3.348535E-3,7.094958E-2,9.6220843E-4,5.339511E-2,1.4380227E-1],"categories":[],"categories_nodes":[],"categories_segments":[],"categories_sizes":[],"default_left":[0,0,0,0,0,0,0,0,0,0,0,0,0,0,0,0,0,0,0,0,0,0,0,0,0,0,0,0,0],"id":9,"left_children":[1,3,5,7,-1,9,-1,-1,11,13,15,-1,-1,17,-1,-1,19,21,23,25,27,-1,-1,-1,-1,-1,-1,-1,-1],"loss_changes":[7.893627E2,1.2992554E0,4.3170712E2,1.1755781E1,0E0,1.5794095E2,0E0,0E0,2.096817E1,1.7430148E2,6.461914E0,0E0,0E0,6.8672028E0,0E0,0E0,5.3297043E0,3.5415955E0,4.8213177E0,2.7633057E0,8.4033966E-1,0E0,0E0,0E0,0E0,0E0,0E0,0E0,0E0],"parents":[2147483647,0,0,1,1,2,2,3,3,5,5,8,8,9,9,10,10,13,13,16,16,17,17,18,18,19,19,20,20],"right_children":[2,4,6,8,-1,10,-1,-1,12,14,16,-1,-1,18,-1,-1,20,22,24,26,28,-1,-1,-1,-1,-1,-1,-1,-1],"split_conditions":[6.999754E-1,4.8E1,7.9891926E-1,2.1E1,-5.351674E-2,2.1E1,1.4974366E-1,-5.234471E-2,7.8298604E-1,5E1,8.3E1,-4.4354804E-2,1.2510554E-1,4.793817E-1,-5.2826423E-2,1.4772846E-1,9.3754953E-1,9.521546E-1,8.613786E-1,9.30383E-1,1.82E2,1.6144508E-1,4.7845352E-2,9.38296E-2,3.348535E-3,7.094958E-2,9.6220843E-4,5.339511E-2,1.4380227E-1],"split_indices":[4,0,3,1,0,1,0,0,3,0,0,0,0,3,0,0,4,4,4,4,0,0,0,0,0,0,0,0,0],"split_type":[0,0,0,0,0,0,0,0,0,0,0,0,0,0,0,0,0,0,0,0,0,0,0,0,0,0,0,0,0],"sum_hessian":[5.443855E2,3.139681E2,2.304174E2,3.604222E1,2.7792587E2,1.341666E2,9.62508E1,3.0186092E1,5.8561277E0,9.66622E1,3.75044E1,3.915385E0,1.9407427E0,1.6103727E1,8.055848E1,6.2962303E0,3.1208168E1,1.0639504E1,5.464223E0,2.4770302E1,6.437866E0,8.747916E0,1.8915879E0,3.0205226E0,2.4437E0,2.3243408E1,1.5268941E0,2.0888681E0,4.348998E0],"tree_param":{"num_deleted":"0","num_feature":"6","num_nodes":"29","size_leaf_vector":"1"}},{"base_weights":[5.9482283E-3,-1.0371186E0,1.3315543E0,-7.909975E-1,-5.33215E-2,2.5214694E0,1.1426693E0,-5.210501E-2,5.006178E-1,1.3826944E0,1.3413039E-1,8.903016E-1,1.8996102E0,1.207663E0,-3.1581035E-1,1.7883584E0,-1.1117904E-2,1.0590557E0,6.920273E-1,2.4835415E-2,1.9268925E0,6.96934E-2,1.8248377E-2,-3.4625098E-2,1.5211247E-2,1.03932396E-1,1.8738978E-2,1.2085578E0,9.178807E-1,-1.7530015E-2,7.217254E-1,1.4523888E0,2.0868351E0,6.1945207E-2,9.525537E-3,2.3494791E-2,5.3914238E-2,2.8196016E-2,4.8901696E-2,2.319681E-2,8.2524866E-2,1.1512184E-1,7.4382976E-2],"categories":[],"categories_nodes":[],"categories_segments":[],"categories_sizes":[],"default_left":[0,0,0,0,0,0,0,0,0,0,0,0,0,0,0,0,0,0,0,0,0,0,0,0,0,0,0,0,0,0,0,0,0,0,0,0,0,0,0,0,0,0,0],"id":10,"left_children":[1,3,5,7,-1,9,11,-1,13,15,-1,17,19,21,23,25,-1,27,29,-1,31,-1,-1,-1,-1,-1,-1,33,35,-1,37,39,41,-1,-1,-1,-1,-1,-1,-1,-1,-1,-1],"loss_changes":[7.4324915E2,1.3266907E0,5.0320404E1,1.21605835E1,0E0,2.0890656E0,3.7681213E1,0E0,4.143086E0,4.2917185E0,0E0,4.5020294E0,9.816437E-1,7.178974E-2,1.1021929E0,1.2253542E0,0E0,6.3475037E-1,2.569809E0,0E0,7.136688E-1,0E0,0E0,0E0,0E0,0E0,0E0,9.062996E-1,2.8461304E0,0E0,2.4041595E0,2.314083E0,1.0460815E0,0E0,0E0,0E0,0E0,0E0,0E0,0E0,0E0,0E0,0E0],"parents":[2147483647,0,0,1,1,2,2,3,3,5,5,6,6,8,8,9,9,11,11,12,12,13,13,14,14,15,15,17,17,18,18,20,20,27,27,28,28,30,30,31,31,32,32],"right_children":[2,4,6,8,-1,10,12,-1,14,16,-1,18,20,22,24,26,-1,28,30,-1,32,-1,-1,-1,-1,-1,-1,34,36,-1,38,40,42,-1,-1,-1,-1,-1,-1,-1,-1,-1,-1],"split_conditions":[6.999754E-1,4.8E1,5E1,2.1E1,-5.33215E-2,1E2,2.1E1,-5.210501E-2,2.3754764E-1,4E1,1.3413039E-1,1E0,6.4E1,2.2E1,5.955112E-1,6.4E1,-1.1117904E-2,2.41E2,2.1E1,2.4835415E-2,7.9103196E-1,6.96934E-2,1.8248377E-2,-3.4625098E-2,1.5211247E-2,1.03932396E-1,1.8738978E-2,5.6E2,3.28E2,-1.7530015E-2,9.001236E-1,1.67E2,2.3E1,6.1945207E-2,9.525537E-3,2.3494791E-2,5.3914238E-2,2.8196016E-2,4.8901696E-2,2.319681E-2,8.2524866E-2,1.1512184E-1,7.4382976E-2],"split_indices":[4,0,0,1,0,5,1,0,4,0,0,2,0,1,4,5,0,0,5,0,4,0,0,0,0,0,0,5,0,0,4,0,1,0,0,0,0,0,0,0,0,0,0],"split_type":[0,0,0,0,0,0,0,0,0,0,0,0,0,0,0,0,0,0,0,0,0,0,0,0,0,0,0,0,0,0,0,0,0,0,0,0,0,0,0,0,0,0,0],"sum_hessian":[5.355376E2,2.998305E2,2.3570709E2,3.488616E1,2.6494434E2,3.0598309E1,2.0510878E2,2.9369604E1,5.5165577E0,4.9806347E0,2.5617674E1,1.5545538E2,4.965339E1,2.6995142E0,2.8170435E0,3.8846219E0,1.0960126E0,8.1634094E1,7.38213E1,1.3135753E0,4.8339813E1,1.6752797E0,1.0242343E0,1.6796975E0,1.137346E0,2.832467E0,1.0521549E0,3.5975662E1,4.5658436E1,1.7452267E0,7.2076065E1,1.4727679E1,3.3612133E1,3.4723667E1,1.251993E0,1.307403E1,3.2584404E1,4.659093E1,2.5485134E1,3.0168889E0,1.1710791E1,2.2627419E1,1.09847145E1],"tree_param":{"num_deleted":"0","num_feature":"6","num_nodes":"43","size_leaf_vector":"1"}},{"base_weights":[9.706647E-3,-1.0322E0,1.2246131E0,-5.3051896E-2,-8.455162E-1,2.0976976E-1,1.3146235E-1,-5.2451886E-2,-8.419762E-2,-4.6327436E-1,8.597284E-2,5.277523E-1,-6.0284144E-1,5.7701063E-1,-5.0153553E-1,5.6431603E-2,-1.8682355E-2,-4.121352E-2,-4.958224E-3,-1.1029418E-2,5.2647542E-2,-5.8216375E-1,-7.2345935E-2,-2.0518681E-2,-3.5979033E-2,1.4772533E-2,-2.3649035E-2],"categories":[],"categories_nodes":[],"categories_segments":[],"categories_sizes":[],"default_left":[0,0,0,0,0,0,0,0,0,0,0,0,0,0,0,0,0,0,0,0,0,0,0,0,0,0,0],"id":11,"left_children":[1,3,5,-1,7,9,-1,-1,11,13,-1,15,17,19,21,-1,-1,-1,-1,-1,-1,23,25,-1,-1,-1,-1],"loss_changes":[6.770751E2,6.531372E-1,3.5145776E2,0E0,6.644409E0,1.4756873E2,0E0,0E0,3.5723073E0,4.297333E0,0E0,3.2580523E0,5.8926344E-1,1.764814E0,3.3373375E0,0E0,0E0,0E0,0E0,0E0,0E0,1.6421585E0,2.5838282E0,0E0,0E0,0E0,0E0],"parents":[2147483647,0,0,1,1,2,2,4,4,5,5,8,8,9,9,11,11,12,12,13,13,14,14,21,21,22,22],"right_children":[2,4,6,-1,8,10,-1,-1,12,14,-1,16,18,20,22,-1,-1,-1,-1,-1,-1,24,26,-1,-1,-1,-1],"split_conditions":[6.999754E-1,2.1E1,7.9891926E-1,-5.3051896E-2,8.094803E-1,2.1E1,1.3146235E-1,-5.2451886E-2,2.06E2,1.8551212E-2,8.597284E-2,2.1446164E-1,4.24E2,2.93E2,5.01E2,5.6431603E-2,-1.8682355E-2,-4.121352E-2,-4.958224E-3,-1.1029418E-2,5.2647542E-2,3.515735E-1,5.47E2,-2.0518681E-2,-3.5979033E-2,1.4772533E-2,-2.3649035E-2],"split_indices":[4,1,3,0,3,1,0,0,5,3,0,4,5,5,5,0,0,0,0,0,0,3,5,0,0,0,0],"split_type":[0,0,0,0,0,0,0,0,0,0,0,0,0,0,0,0,0,0,0,0,0,0,0,0,0,0,0],"sum_hessian":[5.328923E2,2.8695197E2,2.459403E2,2.4449945E2,4.2452515E1,1.4344855E2,1.0249175E2,3.319946E1,9.2530575E0,9.969566E1,4.375289E1,4.2366524E0,5.016405E0,3.0371633E0,9.66585E1,2.3908226E0,1.8458297E0,3.042389E0,1.9740161E0,1.335538E0,1.7016253E0,8.107179E1,1.5586705E1,3.780129E1,4.3270504E1,8.263276E0,7.323429E0],"tree_param":{"num_deleted":"0","num_feature":"6","num_nodes":"27","size_leaf_vector":"1"}},{"base_weights":[-1.679468E-2,-1.0310466E0,1.1187462E0,-7.892558E-1,-5.2965354E-2,1.6154034E-1,1.21292315E-1,-5.154809E-2,3.9008105E-1,-4.6873063E-1,1.4987404E0,-4.2639434E-2,1.0713559E-1,1.8541769E0,-5.269366E-2,1.2113094E-1,1.3363123E0,1.9294658E-1,2.1108308E0,6.7247367E-1,1.5671138E0,4.138333E-2,-3.2062106E-2,7.168471E-2,1.2554151E-1,5.3858828E-2,-1.676946E-2,8.614295E-2,4.268289E-2],"categories":[],"categories_nodes":[],"categories_segments":[],"categories_sizes":[],"default_left":[0,0,0,0,0,0,0,0,0,0,0,0,0,0,0,0,0,0,0,0,0,0,0,0,0,0,0,0,0],"id":12,"left_children":[1,3,5,7,-1,9,-1,-1,11,13,15,-1,-1,17,-1,-1,19,21,23,25,27,-1,-1,-1,-1,-1,-1,-1,-1],"loss_changes":[6.040064E2,1.0567627E0,3.091852E2,9.783422E0,0E0,1.219848E2,0E0,0E0,1.5601236E1,1.3592938E2,3.7161865E0,0E0,0E0,8.203308E0,0E0,0E0,5.3258743E0,2.5444355E0,1.1110153E0,5.4573092E0,1.8789291E0,0E0,0E0,0E0,0E0,0E0,0E0,0E0,0E0],"parents":[2147483647,0,0,1,1,2,2,3,3,5,5,8,8,9,9,10,10,13,13,16,16,17,17,18,18,19,19,20,20],"right_children":[2,4,6,8,-1,10,-1,-1,12,14,16,-1,-1,18,-1,-1,20,22,24,26,28,-1,-1,-1,-1,-1,-1,-1,-1],"split_conditions":[6.999754E-1,4.8E1,7.9891926E-1,2.1E1,-5.2965354E-2,2.1E1,1.21292315E-1,-5.154809E-2,7.8298604E-1,5E1,4.8E1,-4.2639434E-2,1.0713559E-1,1E2,-5.269366E-2,1.2113094E-1,1.67E2,3.3E1,2.6E1,1.43E2,4.63E2,4.138333E-2,-3.2062106E-2,7.168471E-2,1.2554151E-1,5.3858828E-2,-1.676946E-2,8.614295E-2,4.268289E-2],"split_indices":[4,0,3,1,0,1,0,0,3,0,0,0,0,5,0,0,0,0,0,0,5,0,0,0,0,0,0,0,0],"split_type":[0,0,0,0,0,0,0,0,0,0,0,0,0,0,0,0,0,0,0,0,0,0,0,0,0,0,0,0,0],"sum_hessian":[5.22435E2,2.760037E2,2.4643129E2,3.1910639E1,2.4409305E2,1.4290428E2,1.03527016E2,2.6587355E1,5.323284E0,9.756691E1,4.533736E1,3.4149861E0,1.9082979E0,1.9195515E1,7.83714E1,4.698374E0,4.063899E1,2.8031945E0,1.639232E1,1.1493802E1,2.9145185E1,1.5963656E0,1.2068288E0,7.789743E0,8.602577E0,8.151735E0,3.3420668E0,2.2761591E1,6.3835945E0],"tree_param":{"num_deleted":"0","num_feature":"6","num_nodes":"29","size_leaf_vector":"1"}},{"base_weights":[-5.2853245E-3,-1.0230771E0,1.0690122E0,-7.5331384E-1,-5.2786805E-2,1.981742E0,9.1757554E-1,-5.129689E-2,4.8823124E-1,2.4341544E-2,1.0124061E-1,7.1759623E-1,1.4628319E0,1.0304755E0,-2.503185E-1,9.7478664E-1,6.482288E-1,1.1022018E-2,1.4812659E0,6.0655426E-2,1.4733173E-2,-3.2004576E-2,1.576904E-2,7.615117E-1,6.0979187E-2,-2.7340371E-2,6.6237676E-1,1.3384638E0,1.8627826E0,5.0597172E-2,1.8768577E-2,4.171263E-2,2.8099671E-2,7.010343E-2,-6.797753E-3,2.3432782E-2,1.01796985E-1],"categories":[],"categories_nodes":[],"categories_segments":[],"categories_sizes":[],"default_left":[0,0,0,0,0,0,0,0,0,0,0,0,0,0,0,0,0,0,0,0,0,0,0,0,0,0,0,0,0,0,0,0,0,0,0,0,0],"id":13,"left_children":[1,3,5,7,-1,9,11,-1,13,-1,-1,15,17,19,21,23,25,-1,27,-1,-1,-1,-1,29,-1,-1,31,33,35,-1,-1,-1,-1,-1,-1,-1,-1],"loss_changes":[5.6191266E2,1.5296326E0,3.2739044E1,1.1328335E1,0E0,1.2495117E0,2.2535599E1,0E0,2.835846E0,0E0,0E0,2.2265472E0,9.807129E-1,1.6761827E-1,9.801761E-1,7.445164E-1,2.5461235E0,0E0,5.6152344E-1,0E0,0E0,0E0,0E0,1.5338345E0,0E0,0E0,1.741539E0,4.3499527E0,2.116108E0,0E0,0E0,0E0,0E0,0E0,0E0,0E0,0E0],"parents":[2147483647,0,0,1,1,2,2,3,3,5,5,6,6,8,8,11,11,12,12,13,13,14,14,15,15,16,16,18,18,23,23,26,26,27,27,28,28],"right_children":[2,4,6,8,-1,10,12,-1,14,-1,-1,16,18,20,22,24,26,-1,28,-1,-1,-1,-1,30,-1,-1,32,34,36,-1,-1,-1,-1,-1,-1,-1,-1],"split_conditions":[6.999754E-1,4.8E1,5E1,2.1E1,-5.2786805E-2,3.5E1,2.1E1,-5.129689E-2,2.3754764E-1,2.4341544E-2,1.0124061E-1,1.05E2,5.8E1,2.2E1,5.955112E-1,1.4E1,1.1E2,1.1022018E-2,9.3754953E-1,6.0655426E-2,1.4733173E-2,-3.2004576E-2,1.576904E-2,8.3657384E-1,6.0979187E-2,-2.7340371E-2,7E0,9.30383E-1,1.29E2,5.0597172E-2,1.8768577E-2,4.171263E-2,2.8099671E-2,7.010343E-2,-6.797753E-3,2.3432782E-2,1.01796985E-1],"split_indices":[4,0,0,1,0,5,1,0,4,0,0,5,0,1,4,1,5,0,4,0,0,0,0,4,0,0,1,4,0,0,0,0,0,0,0,0,0],"split_type":[0,0,0,0,0,0,0,0,0,0,0,0,0,0,0,0,0,0,0,0,0,0,0,0,0,0,0,0,0,0,0,0,0,0,0,0,0],"sum_hessian":[5.119077E2,2.6289145E2,2.4901627E2,3.0988894E1,2.3190254E2,3.371641E1,2.1529985E2,2.555178E1,5.437113E0,1.2887518E0,3.2427658E1,1.5922008E2,5.607978E1,2.9073E0,2.5298128E0,3.1048922E1,1.2817116E2,1.0093797E0,5.5070404E1,1.8095037E0,1.0977963E0,1.4199482E0,1.1098646E0,1.8789606E1,1.22593155E1,1.0591391E0,1.27112015E2,4.3351982E1,1.1718422E1,1.0414561E1,8.375046E0,4.417136E1,8.294065E1,4.160621E1,1.7457712E0,1.7041838E0,1.0014238E1],"tree_param":{"num_deleted":"0","num_feature":"6","num_nodes":"37","size_leaf_vector":"1"}},{"base_weights":[-6.0237246E-3,-1.0221934E0,1.0002176E0,-7.2305065E-1,-5.2460838E-2,1.309981E-1,1.1013055E-1,-5.0478872E-2,5.306766E-1,-4.899967E-1,1.3735476E0,-3.8611837E-2,9.649744E-2,1.5590533E0,-5.2626964E-2,1.0158131E-1,1.2036436E0,7.618705E-1,1.8146245E0,4.6610078E-1,1.3725734E0,7.131838E-2,-1.4567834E-2,1.7307393E-2,9.495263E-2,5.507487E-2,-2.8086616E-2,3.0437455E-2,7.536452E-2],"categories":[],"categories_nodes":[],"categories_segments":[],"categories_sizes":[],"default_left":[0,0,0,0,0,0,0,0,0,0,0,0,0,0,0,0,0,0,0,0,0,0,0,0,0,0,0,0,0],"id":14,"left_children":[1,3,5,7,-1,9,-1,-1,11,13,15,-1,-1,17,-1,-1,19,21,23,25,27,-1,-1,-1,-1,-1,-1,-1,-1],"loss_changes":[5.187854E2,1.2819824E0,2.6615027E2,9.20437E0,0E0,1.1566582E2,0E0,0E0,1.0869489E1,1.170289E2,3.1366653E0,0E0,0E0,3.0927124E0,0E0,0E0,4.6097527E0,5.3539653E0,1.3151169E0,6.7355947E0,2.5570908E0,0E0,0E0,0E0,0E0,0E0,0E0,0E0,0E0],"parents":[2147483647,0,0,1,1,2,2,3,3,5,5,8,8,9,9,10,10,13,13,16,16,17,17,18,18,19,19,20,20],"right_children":[2,4,6,8,-1,10,-1,-1,12,14,16,-1,-1,18,-1,-1,20,22,24,26,28,-1,-1,-1,-1,-1,-1,-1,-1],"split_conditions":[6.999754E-1,3.6E1,7.9891926E-1,2.1E1,-5.2460838E-2,2.1E1,1.1013055E-1,-5.0478872E-2,7.8298604E-1,5E1,8.3E1,-3.8611837E-2,9.649744E-2,7E0,-5.2626964E-2,1.0158131E-1,1.67E2,3.4901005E-1,8.8E1,1.43E2,7.533532E-1,7.131838E-2,-1.4567834E-2,1.7307393E-2,9.495263E-2,5.507487E-2,-2.8086616E-2,3.0437455E-2,7.536452E-2],"split_indices":[4,0,3,1,0,1,0,0,3,0,0,0,0,1,0,0,0,3,5,0,4,0,0,0,0,0,0,0,0],"split_type":[0,0,0,0,0,0,0,0,0,0,0,0,0,0,0,0,0,0,0,0,0,0,0,0,0,0,0,0,0],"sum_hessian":[5.0536377E2,2.5143353E2,2.5393025E2,2.3131344E1,2.2830219E2,1.4802837E2,1.0590188E2,1.8986835E1,4.14451E0,9.910423E1,4.892414E1,2.3781981E0,1.7663115E0,2.0965689E1,7.813854E1,7.7908397E0,4.11333E1,6.0561814E0,1.4909508E1,8.366131E0,3.276717E1,3.4961343E0,2.5600471E0,1.0878682E0,1.382164E1,5.1257634E0,3.2403677E0,5.74015E0,2.7027018E1],"tree_param":{"num_deleted":"0","num_feature":"6","num_nodes":"29","size_leaf_vector":"1"}},{"base_weights":[-2.8855143E-2,-5.3389823E-1,8.88981E-1,-8.1772166E-1,3.7440008E-1,8.9527005E-1,2.704641E-1,2.8847313E-1,-5.2254763E-2,9.362855E-1,2.958487E-1,5.1706547E-1,9.062619E-1,-9.136692E-3,2.9326892E-2,6.2768245E-1,-1.1892136E-1,1.0208178E0,1.039989E-2,3.9016843E-1,-1.765854E-2,4.5080744E-2,6.739743E-2,1.0105025E0,8.4128475E-1,3.013682E-1,1.118248E0,-6.7014134E-1,3.3165443E-1,1.1204136E-2,5.696553E-2,2.478518E-1,9.578836E-1,-7.907506E-1,5.226028E-1,-4.3624148E-1,3.41985E-2,6.5746343E-1,1.0728322E0,-4.1466195E-2,8.7945306E-1,-1.8912962E-2,3.6801383E-2,7.154796E-2,5.6843474E-3,-9.518989E-3,-4.6295747E-2,6.8906024E-2,5.0456435E-3,2.7036954E-2,-8.191663E-3,7.7753864E-2,2.5371987E-2,-8.477296E-3,-4.3296404E-2,3.8070515E-2,-3.255699E-2,-6.01229E-3,-2.683734E-2,3.9427534E-2,3.450028E-3,2.6140446E-2,5.5331763E-2,3.0678311E-2,-1.697453E-2,3.411143E-2,4.832853E-2],"categories":[],"categories_nodes":[],"categories_segments":[],"categories_sizes":[],"default_left":[0,0,0,0,0,0,0,0,0,0,0,0,0,0,0,0,0,0,0,0,0,0,0,0,0,0,0,0,0,0,0,0,0,0,0,0,0,0,0,0,0,0,0,0,0,0,0,0,0,0,0,0,0,0,0,0,0,0,0,0,0,0,0,0,0,0,0],"id":15,"left_children":[1,3,5,7,9,11,13,15,-1,17,19,21,23,-1,-1,25,27,29,-1,31,33,-1,35,37,39,41,43,45,47,-1,-1,49,51,53,55,57,-1,59,61,63,65,-1,-1,-1,-1,-1,-1,-1,-1,-1,-1,-1,-1,-1,-1,-1,-1,-1,-1,-1,-1,-1,-1,-1,-1,-1,-1],"loss_changes":[2.2778427E2,8.2012375E1,4.3637085E-1,6.1118103E1,3.0837631E0,2.4743652E-1,5.639297E-1,5.880101E0,0E0,3.3419418E-1,2.0255303E0,1.1830534E0,2.7456665E-1,0E0,0E0,3.3580303E0,5.1715574E0,4.7146702E-1,0E0,4.006095E0,7.4071665E0,0E0,1.6636442E0,5.882759E-1,3.6840591E0,4.777712E0,2.6179924E0,9.641671E-1,2.6700265E0,0E0,0E0,5.3148336E0,1.9488583E0,1.9345284E-1,3.4273887E0,3.1704187E-2,0E0,8.2533646E-1,3.210144E-1,1.2706409E0,1.1243439E0,0E0,0E0,0E0,0E0,0E0,0E0,0E0,0E0,0E0,0E0,0E0,0E0,0E0,0E0,0E0,0E0,0E0,0E0,0E0,0E0,0E0,0E0,0E0,0E0,0E0,0E0],"parents":[2147483647,0,0,1,1,2,2,3,3,4,4,5,5,6,6,7,7,9,9,10,10,11,11,12,12,15,15,16,16,17,17,19,19,20,20,22,22,23,23,24,24,25,25,26,26,27,27,28,28,31,31,32,32,33,33,34,34,35,35,37,37,38,38,39,39,40,40],"right_children":[2,4,6,8,10,12,14,16,-1,18,20,22,24,-1,-1,26,28,30,-1,32,34,-1,36,38,40,42,44,46,48,-1,-1,50,52,54,56,58,-1,60,62,64,66,-1,-1,-1,-1,-1,-1,-1,-1,-1,-1,-1,-1,-1,-1,-1,-1,-1,-1,-1,-1,-1,-1,-1,-1,-1,-1],"split_conditions":[7.9891926E-1,2.1E1,5.89E2,5E1,4.8E1,2.5E1,3.54E2,3.5592943E-1,-5.2254763E-2,6.8092513E-1,5.8472276E-1,8.6309195E-1,2.11E2,-9.136692E-3,2.9326892E-2,3.83E2,2.95E2,2.4361345E-1,1.039989E-2,4.99E2,6.63012E-1,4.5080744E-2,1.8E1,8.4588575E-1,2.31E2,2.6E1,1.2E1,1.1E2,3.2E2,1.1204136E-2,5.696553E-2,2.84E2,2.03E2,5.7E1,4.57E2,9E0,3.41985E-2,8.3525914E-1,2E0,5E0,3.59E2,-1.8912962E-2,3.6801383E-2,7.154796E-2,5.6843474E-3,-9.518989E-3,-4.6295747E-2,6.8906024E-2,5.0456435E-3,2.7036954E-2,-8.191663E-3,7.7753864E-2,2.5371987E-2,-8.477296E-3,-4.3296404E-2,3.8070515E-2,-3.255699E-2,-6.01229E-3,-2.683734E-2,3.9427534E-2,3.450028E-3,2.6140446E-2,5.5331763E-2,3.0678311E-2,-1.697453E-2,3.411143E-2,4.832853E-2],"split_indices":[3,1,5,0,0,5,0,3,0,3,3,3,5,0,0,5,5,3,0,5,3,0,1,3,5,0,1,5,5,0,0,5,0,5,5,1,0,3,1,1,5,0,0,0,0,0,0,0,0,0,0,0,0,0,0,0,0,0,0,0,0,0,0,0,0,0,0],"split_type":[0,0,0,0,0,0,0,0,0,0,0,0,0,0,0,0,0,0,0,0,0,0,0,0,0,0,0,0,0,0,0,0,0,0,0,0,0,0,0,0,0,0,0,0,0,0,0,0,0,0,0,0,0,0,0,0,0,0,0,0,0,0,0,0,0,0,0],"sum_hessian":[4.8937045E2,3.1594095E2,1.734295E2,2.4079689E2,7.5144066E1,1.7124089E2,2.188611E0,4.1010075E1,1.9978682E2,7.877338E0,6.726672E1,6.1930547E0,1.6504784E2,1.0725762E0,1.1160349E0,2.2082651E1,1.8927423E1,6.698209E0,1.1791294E0,5.1521717E1,1.574501E1,2.79648E0,3.396575E0,5.778835E1,1.0725948E2,1.4230885E1,7.851767E0,8.293779E0,1.0633643E1,1.2415103E0,5.4566984E0,4.2343494E1,9.178222E0,6.286146E0,9.458864E0,2.0304792E0,1.3660959E0,1.0404554E1,4.7383797E1,4.4418836E0,1.028176E2,5.601779E0,8.629105E0,5.6641145E0,2.1876528E0,3.4906332E0,4.8031464E0,1.0227349E0,9.6109085E0,2.4558344E1,1.778515E1,2.8918781E0,6.286343E0,1.0300374E0,5.2561088E0,8.151644E0,1.3072212E0,1.0199856E0,1.0104935E0,8.230986E0,2.1735694E0,3.6968637E0,4.368693E1,1.0579095E0,3.383974E0,3.420727E1,6.861033E1],"tree_param":{"num_deleted":"0","num_feature":"6","num_nodes":"67","size_leaf_vector":"1"}},{"base_weights":[-5.4817214E-3,-1.0215523E0,9.4669956E-1,-7.820028E-1,-5.2473105E-2,1.4911523E-1,1.0133679E-1,-5.070836E-2,-5.915896E-2,1.5462492E0,-1.9389589E-1,8.9418787E-1,-5.792853E-1,1.140997E0,2.010708E0,-3.3182964E-1,1.342937E-1,5.5363E-2,1.2875917E-2,-6.38333E-4,-4.0505327E-2,4.9619123E-1,1.5035633E0,1.0504736E-1,3.334798E-2,-3.693425E-1,4.5020232E-1,-4.1156533E-1,2.4812788E-1,4.9087137E-2,-5.2033025E-3,2.6599502E-2,8.5407816E-2,-7.4139126E-3,-2.8605511E-2,-1.0764281E-2,3.9978027E-2,1.6166762E-2,-4.4892754E-2,5.755631E-2,8.004918E-3],"categories":[],"categories_nodes":[],"categories_segments":[],"categories_sizes":[],"default_left":[0,0,0,0,0,0,0,0,0,0,0,0,0,0,0,0,0,0,0,0,0,0,0,0,0,0,0,0,0,0,0,0,0,0,0,0,0,0,0,0,0],"id":16,"left_children":[1,3,5,7,-1,9,-1,-1,11,13,15,17,19,21,23,25,27,-1,-1,-1,-1,29,31,-1,-1,33,35,37,39,-1,-1,-1,-1,-1,-1,-1,-1,-1,-1,-1,-1],"loss_changes":[4.700862E2,7.50824E-1,2.1576915E2,4.7147884E0,0E0,6.996183E1,0E0,0E0,4.474314E0,3.119934E0,5.367995E0,1.502595E-1,7.4405503E-1,3.3856983E0,6.492996E-2,2.6037178E0,2.3086724E0,0E0,0E0,0E0,0E0,2.3910894E0,1.2420235E0,0E0,0E0,3.4936333E0,1.1611058E0,2.6145806E0,2.2009854E0,0E0,0E0,0E0,0E0,0E0,0E0,0E0,0E0,0E0,0E0,0E0,0E0],"parents":[2147483647,0,0,1,1,2,2,3,3,5,5,8,8,9,9,10,10,11,11,12,12,13,13,14,14,15,15,16,16,21,21,22,22,25,25,26,26,27,27,28,28],"right_children":[2,4,6,8,-1,10,-1,-1,12,14,16,18,20,22,24,26,28,-1,-1,-1,-1,30,32,-1,-1,34,36,38,40,-1,-1,-1,-1,-1,-1,-1,-1,-1,-1,-1,-1],"split_conditions":[6.999754E-1,4.8E1,7.9891926E-1,8.2100135E-1,-5.2473105E-2,5E1,1.0133679E-1,-5.070836E-2,1.4950377E-1,3.77E2,9.159008E-1,1.65E2,1.3E1,2.6E1,6.6761833E-1,4.78E2,1.29E2,5.5363E-2,1.2875917E-2,-6.38333E-4,-4.0505327E-2,8.51052E-1,8.6E1,1.0504736E-1,3.334798E-2,2.86E2,2.86E2,7.8E1,1.43E2,4.9087137E-2,-5.2033025E-3,2.6599502E-2,8.5407816E-2,-7.4139126E-3,-2.8605511E-2,-1.0764281E-2,3.9978027E-2,1.6166762E-2,-4.4892754E-2,5.755631E-2,8.004918E-3],"split_indices":[4,0,3,3,0,0,0,0,4,5,4,5,0,0,3,0,0,0,0,0,0,4,5,0,0,5,5,0,0,0,0,0,0,0,0,0,0,0,0,0,0],"split_type":[0,0,0,0,0,0,0,0,0,0,0,0,0,0,0,0,0,0,0,0,0,0,0,0,0,0,0,0,0,0,0,0,0,0,0,0,0,0,0,0,0],"sum_hessian":[4.838859E2,2.3405424E2,2.4983163E2,2.745206E1,2.0660219E2,1.4436163E2,1.0547001E2,2.0473362E1,6.9786987E0,2.7764585E1,1.16597046E2,2.2095711E0,4.769128E0,1.6673313E1,1.1091273E1,8.2086205E1,3.4510838E1,1.1017185E0,1.1078526E0,1.6861111E0,3.0830166E0,6.8534145E0,9.819899E0,9.865275E0,1.2259976E0,7.883245E1,3.2537584E0,5.503742E0,2.9007093E1,3.43737E0,3.4160445E0,2.3344188E0,7.4854794E0,3.854292E1,4.0289528E1,1.2522092E0,2.0015492E0,2.3250823E0,3.17866E0,1.5038775E0,2.7503216E1],"tree_param":{"num_deleted":"0","num_feature":"6","num_nodes":"41","size_leaf_vector":"1"}},{"base_weights":[-1.1663132E-2,-4.7175616E-1,7.9766184E-1,-7.68649E-1,4.1552633E-1,7.1841973E-1,8.929961E-1,4.459903E-1,-5.203845E-2,5.6000628E-2,3.2886818E-1,-1.1378782E-2,7.322875E-1,9.2646086E-1,4.8081613E-1,2.9609472E-1,1.0043172E0,1.2229678E-1,5.035148E-1,2.7475023E-1,7.623527E-1,1.2024155E0,8.685563E-1,-1.3159196E-2,6.7260706E-1,-8.199624E-2,5.844852E-1,6.346693E-2,-1.27719445E-2,-5.418861E-1,2.1959381E-1,1.071604E0,2.8565496E-1,5.787752E-1,-2.021404E-1,7.766659E-1,-1.6482294E-3,4.3846726E-1,7.173347E-2,1.0960524E-2,8.812358E-1,4.236957E-2,7.380791E-3,-1.2583203E-2,5.3453695E-2,3.613691E-2,-3.5415035E-2,1.6048513E-2,-4.4703998E-2,1.4749646E-2,-3.670413E-2,6.518496E-2,-2.326925E-3,6.387474E-2,7.7655683E-3,3.529567E-2,3.973458E-3,-2.882337E-2,9.936697E-3,4.243145E-2,3.231908E-2,6.388685E-3,2.6396275E-2,5.0056666E-2,3.808131E-2],"categories":[],"categories_nodes":[],"categories_segments":[],"categories_sizes":[],"default_left":[0,0,0,0,0,0,0,0,0,0,0,0,0,0,0,0,0,0,0,0,0,0,0,0,0,0,0,0,0,0,0,0,0,0,0,0,0,0,0,0,0,0,0,0,0,0,0,0,0,0,0,0,0,0,0,0,0,0,0,0,0,0,0,0,0],"id":17,"left_children":[1,3,5,7,9,11,13,15,-1,-1,17,-1,19,21,23,25,27,29,31,33,35,37,39,-1,41,43,45,-1,-1,47,49,51,53,55,57,59,-1,61,-1,-1,63,-1,-1,-1,-1,-1,-1,-1,-1,-1,-1,-1,-1,-1,-1,-1,-1,-1,-1,-1,-1,-1,-1,-1,-1],"loss_changes":[1.762842E2,7.982572E1,6.547394E-1,7.532713E1,4.290904E0,1.4630585E0,5.721283E-1,3.230628E0,0E0,0E0,2.4412694E0,0E0,1.1335335E0,2.8686523E-2,1.2641559E0,3.8262107E0,3.163435E0,2.2582438E0,4.306775E0,1.2164629E0,1.0620346E0,9.759083E-1,2.9348755E-1,0E0,4.565351E-1,3.3685932E0,4.047301E0,0E0,0E0,1.6600004E0,2.3439262E0,2.6475239E0,3.4606872E0,2.543099E-1,6.687951E-1,2.9037094E-1,0E0,3.1187057E-2,0E0,0E0,6.419754E-2,0E0,0E0,0E0,0E0,0E0,0E0,0E0,0E0,0E0,0E0,0E0,0E0,0E0,0E0,0E0,0E0,0E0,0E0,0E0,0E0,0E0,0E0,0E0,0E0],"parents":[2147483647,0,0,1,1,2,2,3,3,4,4,5,5,6,6,7,7,10,10,12,12,13,13,14,14,15,15,16,16,17,17,18,18,19,19,20,20,21,21,22,22,24,24,25,25,26,26,29,29,30,30,31,31,32,32,33,33,34,34,35,35,37,37,40,40],"right_children":[2,4,6,8,10,12,14,16,-1,-1,18,-1,20,22,24,26,28,30,32,34,36,38,40,-1,42,44,46,-1,-1,48,50,52,54,56,58,60,-1,62,-1,-1,64,-1,-1,-1,-1,-1,-1,-1,-1,-1,-1,-1,-1,-1,-1,-1,-1,-1,-1,-1,-1,-1,-1,-1,-1],"split_conditions":[7.9891926E-1,2.1E1,1.4E1,5E1,4.3E1,1.3E1,4.46E2,5.01E2,-5.203845E-2,5.6000628E-2,2.6E2,-1.1378782E-2,4.8E1,4.3E1,4.57E2,2.6E1,3.8E1,5.5E1,3.15E2,8.698299E-1,5.84E2,1.8E1,5.6E1,-1.3159196E-2,2.65E2,4.63E2,4.77E2,6.346693E-2,-1.27719445E-2,1.8896937E-1,5.62E2,4.8316616E-1,6.376929E-2,2E1,3.72E2,8E0,-1.6482294E-3,2.93E2,7.173347E-2,1.0960524E-2,1.8E1,4.236957E-2,7.380791E-3,-1.2583203E-2,5.3453695E-2,3.613691E-2,-3.5415035E-2,1.6048513E-2,-4.4703998E-2,1.4749646E-2,-3.670413E-2,6.518496E-2,-2.326925E-3,6.387474E-2,7.7655683E-3,3.529567E-2,3.973458E-3,-2.882337E-2,9.936697E-3,4.243145E-2,3.231908E-2,6.388685E-3,2.6396275E-2,5.0056666E-2,3.808131E-2],"split_indices":[3,1,1,0,0,5,0,5,0,0,0,0,0,0,0,0,0,5,0,3,5,1,0,0,5,5,5,0,0,3,5,3,3,0,5,1,0,5,0,0,1,0,0,0,0,0,0,0,0,0,0,0,0,0,0,0,0,0,0,0,0,0,0,0,0],"split_type":[0,0,0,0,0,0,0,0,0,0,0,0,0,0,0,0,0,0,0,0,0,0,0,0,0,0,0,0,0,0,0,0,0,0,0,0,0,0,0,0,0,0,0,0,0,0,0,0,0,0,0,0,0,0,0,0,0,0,0,0,0,0,0,0,0],"sum_hessian":[4.714074E2,3.008145E2,1.705929E2,2.2549539E2,7.5319115E1,9.782024E1,7.277266E1,4.115523E1,1.8434015E2,6.943942E0,6.8375175E1,1.1906322E0,9.66296E1,6.615392E1,6.618737E0,3.3651142E1,7.5040917E0,3.2103508E1,3.6271664E1,6.5832415E0,9.0046364E1,8.045621E0,5.8108303E1,1.2802228E0,5.338515E0,1.4870727E1,1.8780415E1,6.1935225E0,1.3105695E0,3.5181324E0,2.8585377E1,8.968004E0,2.730366E1,3.8897948E0,2.6934464E0,8.847749E1,1.5688647E0,2.549029E0,5.4965916E0,1.4631977E0,5.6645103E1,3.5443842E0,1.7941304E0,1.36413555E1,1.2293712E0,1.7364378E1,1.4160354E0,1.0454614E0,2.472671E0,2.7131035E1,1.454343E0,7.2890506E0,1.6789536E0,2.1491203E0,2.515454E1,2.7705436E0,1.1192515E0,1.1663301E0,1.5271164E0,5.3443874E1,3.5033623E1,1.1127367E0,1.4362924E0,2.4607937E1,3.2037167E1],"tree_param":{"num_deleted":"0","num_feature":"6","num_nodes":"65","size_leaf_vector":"1"}},{"base_weights":[-1.658577E-2,-1.0146579E0,8.845936E-1,-7.5778615E-1,-5.234849E-2,7.3431194E-1,1.2831953E0,-5.068633E-2,2.805684E-1,1.3043694E0,6.061211E-1,8.8918194E-2,1.1538119E0,8.250299E-1,-4.8631674E-1,1.0457649E0,1.6092602E0,5.6639755E-1,7.813849E-1,-1.4855054E-1,1.2118096E0,4.8660234E-2,1.1503371E-2,-3.084222E-2,-4.863204E-3,1.1127514E-1,1.3183653E0,9.296572E-2,8.849731E-1,5.89536E-1,-1.06750034E-1,8.411212E-1,-1.1453253E-2,1.0060484E-2,-1.9937607E-2,7.542306E-1,1.3697666E0,-1.3376668E-2,3.6061764E-2,7.0015185E-2,8.394411E-3,6.0968876E-2,1.3597049E-2,2.6878644E-2,4.0876154E-2,-2.4938872E-2,1.9426929E-2,2.6228998E-2,4.7981907E-2,-2.5189057E-2,4.763129E-2,8.19157E-2,5.1325228E-2],"categories":[],"categories_nodes":[],"categories_segments":[],"categories_sizes":[],"default_left":[0,0,0,0,0,0,0,0,0,0,0,0,0,0,0,0,0,0,0,0,0,0,0,0,0,0,0,0,0,0,0,0,0,0,0,0,0,0,0,0,0,0,0,0,0,0,0,0,0,0,0,0,0],"id":18,"left_children":[1,3,5,7,-1,9,11,-1,13,15,17,-1,19,21,23,25,27,29,31,33,35,-1,-1,-1,-1,37,39,-1,41,43,45,47,-1,-1,-1,49,51,-1,-1,-1,-1,-1,-1,-1,-1,-1,-1,-1,-1,-1,-1,-1,-1],"loss_changes":[4.256538E2,1.0703278E0,1.3955643E1,7.9142056E0,0E0,1.2578438E1,2.224907E0,0E0,3.0987043E0,8.968544E-1,6.102867E-1,0E0,4.392845E0,1.4186263E-1,1.08166456E-1,5.090578E0,7.379532E-1,2.0397873E0,1.7202806E0,3.6627567E-1,2.834114E0,0E0,0E0,0E0,0E0,1.5180978E0,1.256607E0,0E0,7.519555E-1,1.0159798E0,1.1771303E0,4.0106964E-1,0E0,0E0,0E0,4.462187E0,1.8718414E0,0E0,0E0,0E0,0E0,0E0,0E0,0E0,0E0,0E0,0E0,0E0,0E0,0E0,0E0,0E0,0E0],"parents":[2147483647,0,0,1,1,2,2,3,3,5,5,6,6,8,8,9,9,10,10,12,12,13,13,14,14,15,15,16,16,17,17,18,18,19,19,20,20,25,25,26,26,28,28,29,29,30,30,31,31,35,35,36,36],"right_children":[2,4,6,8,-1,10,12,-1,14,16,18,-1,20,22,24,26,28,30,32,34,36,-1,-1,-1,-1,38,40,-1,42,44,46,48,-1,-1,-1,50,52,-1,-1,-1,-1,-1,-1,-1,-1,-1,-1,-1,-1,-1,-1,-1,-1],"split_conditions":[6.999754E-1,4.8E1,2.1E1,2.1E1,-5.234849E-2,5.4E1,8.9E1,-5.068633E-2,2.3754764E-1,3.77E2,4.29E2,8.8918194E-2,1.1E2,2.2E1,4.07E2,8E0,3.3E1,4.11E2,5.28E2,1.48E2,7.9103196E-1,4.8660234E-2,1.1503371E-2,-3.084222E-2,-4.863204E-3,3.02E2,9.6411645E-1,9.296572E-2,4.77E2,5.15E2,4.23E2,1.88E2,-1.1453253E-2,1.0060484E-2,-1.9937607E-2,1.67E2,3.02E2,-1.3376668E-2,3.6061764E-2,7.0015185E-2,8.394411E-3,6.0968876E-2,1.3597049E-2,2.6878644E-2,4.0876154E-2,-2.4938872E-2,1.9426929E-2,2.6228998E-2,4.7981907E-2,-2.5189057E-2,4.763129E-2,8.19157E-2,5.1325228E-2],"split_indices":[4,0,1,1,0,0,0,0,4,5,0,0,0,1,5,1,0,0,5,5,4,0,0,0,0,5,4,0,5,5,0,5,0,0,0,0,0,0,0,0,0,0,0,0,0,0,0,0,0,0,0,0,0],"split_type":[0,0,0,0,0,0,0,0,0,0,0,0,0,0,0,0,0,0,0,0,0,0,0,0,0,0,0,0,0,0,0,0,0,0,0,0,0,0,0,0,0,0,0,0,0,0,0,0,0,0,0,0,0],"sum_hessian":[4.712442E2,2.235418E2,2.4770241E2,2.7709642E1,1.9583215E2,1.819467E2,6.575571E1,2.2249226E1,5.4604163E0,3.1718979E1,1.5022772E2,1.0981813E1,5.4773895E1,3.1489518E0,2.3114645E0,1.955913E1,1.2159849E1,1.2591969E2,2.4308027E1,2.2686672E0,5.2505226E1,2.0120993E0,1.1368525E0,1.2923694E0,1.0190953E0,4.735109E0,1.4824021E1,7.874236E0,4.285613E0,1.218553E2,4.064391E0,2.310941E1,1.1986171E0,1.0277588E0,1.2409084E0,1.4955673E1,3.7549553E1,3.2673512E0,1.4677575E0,1.3635718E1,1.1883026E0,2.1329901E0,2.1526227E0,1.01971664E2,1.988364E1,2.2647598E0,1.7996311E0,7.773566E0,1.5335844E1,1.8276122E0,1.3128061E1,1.8950817E1,1.8598738E1],"tree_param":{"num_deleted":"0","num_feature":"6","num_nodes":"53","size_leaf_vector":"1"}},{"base_weights":[-2.2664864E-2,-1.0217303E0,8.354624E-1,-8.0209947E-1,-5.222527E-2,9.197893E-2,1.8560721E0,-5.018844E-2,1.2876609E-1,-4.6407035E-1,1.0708268E0,3.7521895E-2,9.3637094E-2,-4.057849E-2,7.868874E-2,1.1542284E0,-5.2099686E-2,8.984754E-2,9.0271634E-1,6.54314E-1,1.472299E0,-1.9271573E-2,9.5308524E-1,4.8832458E-2,-3.857575E-2,2.4481595E-3,8.194216E-2,4.047723E-2,7.921732E-2],"categories":[],"categories_nodes":[],"categories_segments":[],"categories_sizes":[],"default_left":[0,0,0,0,0,0,0,0,0,0,0,0,0,0,0,0,0,0,0,0,0,0,0,0,0,0,0,0,0],"id":19,"left_children":[1,3,5,7,-1,9,11,-1,13,15,17,-1,-1,-1,-1,19,-1,-1,21,23,25,-1,27,-1,-1,-1,-1,-1,-1],"loss_changes":[3.9382663E2,2.2387695E-1,1.8735158E2,4.6816444E0,0E0,7.888913E1,5.1330566E-1,0E0,8.3490505E0,8.775838E1,4.7839546E0,0E0,0E0,0E0,0E0,2.9844856E0,0E0,0E0,3.2626038E0,6.0177665E0,3.327032E0,0E0,2.634697E0,0E0,0E0,0E0,0E0,0E0,0E0],"parents":[2147483647,0,0,1,1,2,2,3,3,5,5,6,6,8,8,9,9,10,10,15,15,18,18,19,19,20,20,22,22],"right_children":[2,4,6,8,-1,10,12,-1,14,16,18,-1,-1,-1,-1,20,-1,-1,22,24,26,-1,28,-1,-1,-1,-1,-1,-1],"split_conditions":[6.999754E-1,4.3E1,7.9891926E-1,2.1E1,-5.222527E-2,2.1E1,8.0250126E-1,-5.018844E-2,7.8298604E-1,5E1,8.3E1,3.7521895E-2,9.3637094E-2,-4.057849E-2,7.868874E-2,2.6E1,-5.2099686E-2,8.984754E-2,1.09E2,9.5615906E-1,7.8E1,-1.9271573E-2,4.33E2,4.8832458E-2,-3.857575E-2,2.4481595E-3,8.194216E-2,4.047723E-2,7.921732E-2],"split_indices":[4,0,3,1,0,1,3,0,3,0,0,0,0,0,0,0,0,0,0,4,5,0,0,0,0,0,0,0,0],"split_type":[0,0,0,0,0,0,0,0,0,0,0,0,0,0,0,0,0,0,0,0,0,0,0,0,0,0,0,0,0],"sum_hessian":[4.5737097E2,2.1124297E2,2.46128E2,2.3250057E1,1.8799292E2,1.4302715E2,1.0310086E2,1.904557E1,4.2044864E0,9.154789E1,5.147926E1,2.2148867E0,1.0088597E2,2.8125741E0,1.3919122E0,2.3827898E1,6.7719986E1,7.8562813E0,4.362298E1,1.0454148E1,1.3373751E1,1.3912265E0,4.2231754E1,8.7835045E0,1.6706438E0,1.5364858E0,1.1837265E1,3.6267433E1,5.9643216E0],"tree_param":{"num_deleted":"0","num_feature":"6","num_nodes":"29","size_leaf_vector":"1"}},{"base_weights":[-1.4595942E-2,-1.005707E0,7.9662216E-1,-6.734114E-1,-5.185444E-2,1.3094109E0,7.0526403E-1,-4.942139E-2,4.6367E-1,1.0186399E0,1.5759892E0,5.730721E-1,1.0319643E0,7.5053847E-1,-2.552403E-3,5.281447E-1,1.325212E0,8.7907575E-2,9.767068E-1,7.530027E-1,5.241328E-1,-1.3736464E-2,1.060528E0,1.114256E-2,4.5587324E-2,-2.2057537E-2,8.214228E-1,5.3952956E-1,1.5004773E0,-3.6514723E-3,6.574606E-2,5.7021576E-1,4.7738917E-2,-2.3988578E-1,5.392461E-1,7.2952455E-1,1.1697528E0,5.5794496E-2,5.4433723E-3,8.095459E-2,-3.940917E-2,3.6791395E-2,9.538488E-2,8.36379E-3,3.8871344E-2,9.72941E-3,-2.7272841E-2,2.3491846E-2,3.251003E-2,7.265774E-3,4.8937693E-2,7.0337586E-2,4.2383708E-2],"categories":[],"categories_nodes":[],"categories_segments":[],"categories_sizes":[],"default_left":[0,0,0,0,0,0,0,0,0,0,0,0,0,0,0,0,0,0,0,0,0,0,0,0,0,0,0,0,0,0,0,0,0,0,0,0,0,0,0,0,0,0,0,0,0,0,0,0,0,0,0,0,0],"id":20,"left_children":[1,3,5,7,-1,9,11,-1,13,15,17,19,21,23,-1,25,27,-1,29,31,33,-1,35,-1,-1,-1,37,39,41,-1,-1,43,-1,45,47,49,51,-1,-1,-1,-1,-1,-1,-1,-1,-1,-1,-1,-1,-1,-1,-1,-1],"loss_changes":[3.6109213E2,1.4095001E0,1.0646957E1,7.7276754E0,0E0,1.1991158E0,8.555672E0,0E0,7.8889406E-1,2.327509E0,1.438713E-1,9.529114E-1,2.5219955E0,7.990229E-2,0E0,3.036296E0,8.052311E-1,0E0,2.3057408E0,5.780277E-1,1.5565834E0,0E0,1.2685394E0,0E0,0E0,0E0,1.4670234E0,6.579883E0,1.4068966E0,0E0,0E0,1.4104967E0,0E0,5.163374E-1,6.3031006E-1,2.3648958E0,2.0495453E0,0E0,0E0,0E0,0E0,0E0,0E0,0E0,0E0,0E0,0E0,0E0,0E0,0E0,0E0,0E0,0E0],"parents":[2147483647,0,0,1,1,2,2,3,3,5,5,6,6,8,8,9,9,10,10,11,11,12,12,13,13,15,15,16,16,18,18,19,19,20,20,22,22,26,26,27,27,28,28,31,31,33,33,34,34,35,35,36,36],"right_children":[2,4,6,8,-1,10,12,-1,14,16,18,20,22,24,-1,26,28,-1,30,32,34,-1,36,-1,-1,-1,38,40,42,-1,-1,44,-1,46,48,50,52,-1,-1,-1,-1,-1,-1,-1,-1,-1,-1,-1,-1,-1,-1,-1,-1],"split_conditions":[6.999754E-1,3.6E1,5E1,2.1E1,-5.185444E-2,3.51E2,2.1E1,-4.942139E-2,2.06E2,2.5E1,3.3E1,1.05E2,6.4E1,2.2E1,-2.552403E-3,5E0,7.6157147E-1,8.7907575E-2,7E0,1.4E1,1.16E2,-1.3736464E-2,7.9103196E-1,1.114256E-2,4.5587324E-2,-2.2057537E-2,9.3754953E-1,1E0,1E0,-3.6514723E-3,6.574606E-2,5.3E1,4.7738917E-2,2.29E2,9.001236E-1,1.9E2,1E0,5.5794496E-2,5.4433723E-3,8.095459E-2,-3.940917E-2,3.6791395E-2,9.538488E-2,8.36379E-3,3.8871344E-2,9.72941E-3,-2.7272841E-2,2.3491846E-2,3.251003E-2,7.265774E-3,4.8937693E-2,7.0337586E-2,4.2383708E-2],"split_indices":[4,0,0,1,0,5,1,0,5,0,0,5,0,0,0,1,4,0,1,1,5,0,4,0,0,0,4,2,2,0,0,5,0,0,4,5,2,0,0,0,0,0,0,0,0,0,0,0,0,0,0,0,0],"split_type":[0,0,0,0,0,0,0,0,0,0,0,0,0,0,0,0,0,0,0,0,0,0,0,0,0,0,0,0,0,0,0,0,0,0,0,0,0,0,0,0,0,0,0,0,0,0,0,0,0,0,0,0,0],"sum_hessian":[4.4711905E2,2.0113783E2,2.4598122E2,1.9294212E1,1.8184363E2,3.5180733E1,2.1080048E2,1.5210921E1,4.0832915E0,1.9132778E1,1.6047956E1,1.5203645E2,5.8764023E1,2.3277876E0,1.7555037E0,8.406182E0,1.0726595E1,1.0824042E1,5.223914E0,2.9433748E1,1.22602715E2,1.0727177E0,5.7691303E1,1.1022242E0,1.2255634E0,1.8355182E0,6.5706644E0,2.7002451E0,8.02635E0,1.4640201E0,3.759894E0,1.7451004E1,1.1982744E1,2.089708E0,1.20513E2,1.6219015E1,4.147229E1,4.2487907E0,2.3218737E0,1.3682573E0,1.3319879E0,3.7645319E0,4.2618184E0,6.540231E0,1.0910773E1,1.0128264E0,1.0768816E0,7.735625E1,4.3156757E1,5.3234878E0,1.0895528E1,2.1951632E1,1.9520657E1],"tree_param":{"num_deleted":"0","num_feature":"6","num_nodes":"53","size_leaf_vector":"1"}},{"base_weights":[3.8012052E-3,-9.9765015E-1,7.8083646E-1,-6.958994E-1,-5.193266E-2,5.501867E-2,1.7518195E0,-5.004571E-2,4.1443133E-1,1.2623085E0,-2.967648E-1,7.817051E-1,8.8347174E-2,-4.0970396E-2,8.689011E-2,9.461527E-1,8.230864E-2,-5.2016396E-2,8.061965E-1,5.1476773E-2,9.02579E-3,3.598303E-1,1.2765639E0,1.0669675E0,5.447889E-1,-4.186136E-3,5.283615E-2,6.9561206E-2,5.884145E-3,6.7447506E-2,1.3397083E-2,8.250861E-3,5.4782726E-2],"categories":[],"categories_nodes":[],"categories_segments":[],"categories_sizes":[],"default_left":[0,0,0,0,0,0,0,0,0,0,0,0,0,0,0,0,0,0,0,0,0,0,0,0,0,0,0,0,0,0,0,0,0],"id":21,"left_children":[1,3,5,7,-1,9,11,-1,13,15,17,19,-1,-1,-1,21,-1,-1,23,-1,-1,25,27,29,31,-1,-1,-1,-1,-1,-1,-1,-1],"loss_changes":[3.464621E2,1.6840057E0,1.7658829E2,9.322154E0,0E0,6.1742542E1,1.9174194E-1,0E0,1.183362E1,2.4223595E0,9.3267845E1,3.2655644E-1,0E0,0E0,0E0,3.4799995E0,0E0,0E0,2.5507793E0,0E0,0E0,2.784368E0,1.5122566E0,4.5859337E0,5.046875E0,0E0,0E0,0E0,0E0,0E0,0E0,0E0,0E0],"parents":[2147483647,0,0,1,1,2,2,3,3,5,5,6,6,8,8,9,9,10,10,11,11,15,15,18,18,21,21,22,22,23,23,24,24],"right_children":[2,4,6,8,-1,10,12,-1,14,16,18,20,-1,-1,-1,22,-1,-1,24,-1,-1,26,28,30,32,-1,-1,-1,-1,-1,-1,-1,-1],"split_conditions":[6.999754E-1,4.8E1,7.9891926E-1,2.1E1,-5.193266E-2,5E1,8.0250126E-1,-5.004571E-2,7.8298604E-1,3.74E2,2.1E1,8.3657384E-1,8.8347174E-2,-4.0970396E-2,8.689011E-2,2.6E1,8.230864E-2,-5.2016396E-2,2.86E2,5.1476773E-2,9.02579E-3,1.9E1,7.2078043E-1,5.8472276E-1,4.77E2,-4.186136E-3,5.283615E-2,6.9561206E-2,5.884145E-3,6.7447506E-2,1.3397083E-2,8.250861E-3,5.4782726E-2],"split_indices":[4,0,3,1,0,0,3,0,3,5,1,4,0,0,0,0,0,0,5,0,0,1,3,3,5,0,0,0,0,0,0,0,0],"split_type":[0,0,0,0,0,0,0,0,0,0,0,0,0,0,0,0,0,0,0,0,0,0,0,0,0,0,0,0,0,0,0,0,0],"sum_hessian":[4.432296E2,1.9352658E2,2.4970305E2,2.5301159E1,1.6822542E2,1.4349559E2,1.06207466E2,1.9925926E1,5.375233E0,3.179379E1,1.1170179E2,2.4391143E0,1.0376835E2,2.9787893E0,2.396444E0,1.9334475E1,1.2459317E1,6.6755356E1,4.4946438E1,1.222614E0,1.2165002E0,7.721512E0,1.1612963E1,2.0957926E1,2.3988514E1,5.256046E0,2.4654658E0,1.0384979E1,1.2279832E0,1.4982306E1,5.9756193E0,1.4968592E1,9.019921E0],"tree_param":{"num_deleted":"0","num_feature":"6","num_nodes":"33","size_leaf_vector":"1"}},{"base_weights":[-1.5791025E-2,-9.945319E-1,7.3422974E-1,-6.883588E-1,-5.1809847E-2,4.2553402E-2,1.6866037E0,-4.9857106E-2,1.625396E-1,1.1024307E0,-2.4433298E-1,3.3277187E-2,8.5105926E-2,6.678777E-1,-4.0047303E-1,6.586143E-1,1.3826042E0,-3.402439E-1,-6.522029E-3,5.3342845E-2,-9.6067665E-3,-3.2526504E-2,-1.4412268E-4,1.07504025E-1,8.742621E-1,9.022415E-1,7.75916E-2,4.022139E-1,-3.896609E-1,4.6312132E-1,-1.4043583E-1,-1.8298447E-2,3.513553E-2,5.5348456E-2,-1.8283246E-2,6.487411E-2,-1.027979E-2,-1.5698014E-2,5.476116E-2,-3.487066E-3,-2.41081E-2,-1.2865439E-2,3.7795972E-2,-1.4314117E-2,2.2303782E-2],"categories":[],"categories_nodes":[],"categories_segments":[],"categories_sizes":[],"default_left":[0,0,0,0,0,0,0,0,0,0,0,0,0,0,0,0,0,0,0,0,0,0,0,0,0,0,0,0,0,0,0,0,0,0,0,0,0,0,0,0,0,0,0,0,0],"id":22,"left_children":[1,3,5,7,-1,9,11,-1,13,15,17,-1,-1,19,21,23,25,27,29,-1,-1,-1,-1,31,33,35,-1,37,39,41,43,-1,-1,-1,-1,-1,-1,-1,-1,-1,-1,-1,-1,-1,-1],"loss_changes":[3.1733124E2,1.6791229E0,1.6115471E2,6.8470507E0,0E0,4.369187E1,4.9795532E-1,0E0,2.439554E0,2.8946266E0,2.5798335E0,0E0,0E0,1.7141037E0,4.192987E-1,1.5404086E0,5.089569E-2,3.115799E0,2.1753318E0,0E0,0E0,0E0,0E0,1.6684881E0,3.2163897E0,3.3488998E0,0E0,3.0860362E0,2.2191477E0,1.8140085E0,2.4267669E0,0E0,0E0,0E0,0E0,0E0,0E0,0E0,0E0,0E0,0E0,0E0,0E0,0E0,0E0],"parents":[2147483647,0,0,1,1,2,2,3,3,5,5,6,6,8,8,9,9,10,10,13,13,14,14,15,15,16,16,17,17,18,18,23,23,24,24,25,25,27,27,28,28,29,29,30,30],"right_children":[2,4,6,8,-1,10,12,-1,14,16,18,-1,-1,20,22,24,26,28,30,-1,-1,-1,-1,32,34,36,-1,38,40,42,44,-1,-1,-1,-1,-1,-1,-1,-1,-1,-1,-1,-1,-1,-1],"split_conditions":[6.999754E-1,4.8E1,7.9891926E-1,8.066555E-1,-5.1809847E-2,5E1,8.0250126E-1,-4.9857106E-2,2.06E2,3E2,9.159008E-1,3.3277187E-2,8.5105926E-2,2.1446164E-1,4.19E2,2.2E1,2.518875E-1,7.0946E-1,1.3127793E-1,5.3342845E-2,-9.6067665E-3,-3.2526504E-2,-1.4412268E-4,5.409901E-1,6.228051E-1,1.8551217E-1,7.75916E-2,4.04E2,1.24E2,1.9E2,6.833684E-1,-1.8298447E-2,3.513553E-2,5.5348456E-2,-1.8283246E-2,6.487411E-2,-1.027979E-2,-1.5698014E-2,5.476116E-2,-3.487066E-3,-2.41081E-2,-1.2865439E-2,3.7795972E-2,-1.4314117E-2,2.2303782E-2],"split_indices":[4,0,3,3,0,0,3,0,5,5,4,0,0,4,5,0,3,4,3,0,0,0,0,3,3,3,0,5,5,0,3,0,0,0,0,0,0,0,0,0,0,0,0,0,0],"split_type":[0,0,0,0,0,0,0,0,0,0,0,0,0,0,0,0,0,0,0,0,0,0,0,0,0,0,0,0,0,0,0,0,0,0,0,0,0,0,0,0,0,0,0,0,0],"sum_hessian":[4.302919E2,1.8654008E2,2.437518E2,2.444301E1,1.6209708E2,1.4180698E2,1.0194483E2,1.780857E1,6.634438E0,2.9602036E1,1.1220493E2,2.1828804E0,9.9761955E1,3.398142E0,3.236296E0,1.2752243E1,1.6849792E1,7.965055E1,3.2554386E1,2.1569653E0,1.2411768E0,1.5962096E0,1.6400863E0,4.0079727E0,8.74427E0,6.0390677E0,1.0810724E1,4.5250754E0,7.512547E1,6.677535E0,2.587685E1,2.4467664E0,1.5612062E0,7.452778E0,1.291492E0,4.3248987E0,1.7141694E0,2.4943297E0,2.0307455E0,1.724315E1,5.788232E1,1.96467E0,4.712865E0,2.1133516E1,4.743335E0],"tree_param":{"num_deleted":"0","num_feature":"6","num_nodes":"45","size_leaf_vector":"1"}},{"base_weights":[-2.3553085E-3,-9.901225E-1,7.1502674E-1,-6.7523557E-1,-5.167987E-2,7.351687E-2,8.147932E-2,-4.960786E-2,3.9079243E-1,-4.649734E-1,9.484281E-1,-4.0318042E-2,8.153062E-2,8.710164E-1,-5.1792294E-2,7.508043E-1,1.2771492E0,4.992193E-1,1.276746E0,8.32689E-1,-2.8504246E-1,1.3582106E0,2.0964978E-2,3.1223172E-2,-3.262035E-2,7.977521E-2,2.8177893E-2,7.113399E-2,3.3463888E-2,1.4259294E-2,-3.9593708E-2,2.9376213E-2,7.682016E-2],"categories":[],"categories_nodes":[],"categories_segments":[],"categories_sizes":[],"default_left":[0,0,0,0,0,0,0,0,0,0,0,0,0,0,0,0,0,0,0,0,0,0,0,0,0,0,0,0,0,0,0,0,0],"id":23,"left_children":[1,3,5,7,-1,9,-1,-1,11,13,15,-1,-1,17,-1,19,21,23,25,27,29,31,-1,-1,-1,-1,-1,-1,-1,-1,-1,-1,-1],"loss_changes":[2.9942722E2,1.7357635E0,1.4349431E2,8.648498E0,0E0,6.871517E1,0E0,0E0,1.0696453E1,6.9829636E1,2.64917E0,0E0,0E0,3.5259953E0,0E0,3.3852997E0,7.8142357E-1,2.7215164E0,1.9551373E0,2.3884144E0,1.2269288E0,1.473568E0,0E0,0E0,0E0,0E0,0E0,0E0,0E0,0E0,0E0,0E0,0E0],"parents":[2147483647,0,0,1,1,2,2,3,3,5,5,8,8,9,9,10,10,13,13,15,15,16,16,17,17,18,18,19,19,20,20,21,21],"right_children":[2,4,6,8,-1,10,-1,-1,12,14,16,-1,-1,18,-1,20,22,24,26,28,30,32,-1,-1,-1,-1,-1,-1,-1,-1,-1,-1,-1],"split_conditions":[6.999754E-1,4.8E1,7.9891926E-1,2.1E1,-5.167987E-2,2.1E1,8.147932E-2,-4.960786E-2,7.795525E-1,5E1,9.159008E-1,-4.0318042E-2,8.153062E-2,3.77E2,-5.1792294E-2,9.034485E-1,5.33E2,7.2078043E-1,3.3E1,9.5E1,4.0917972E-1,1.29E2,2.0964978E-2,3.1223172E-2,-3.262035E-2,7.977521E-2,2.8177893E-2,7.113399E-2,3.3463888E-2,1.4259294E-2,-3.9593708E-2,2.9376213E-2,7.682016E-2],"split_indices":[4,0,3,1,0,1,0,0,3,0,4,0,0,5,0,4,5,3,0,0,3,0,0,0,0,0,0,0,0,0,0,0,0],"split_type":[0,0,0,0,0,0,0,0,0,0,0,0,0,0,0,0,0,0,0,0,0,0,0,0,0,0,0,0,0,0,0,0,0],"sum_hessian":[4.2055875E2,1.7677548E2,2.4378328E2,2.3451189E1,1.533243E2,1.4391542E2,9.986785E1,1.8130447E1,5.3207426E0,8.937528E1,5.4540142E1,2.8848171E0,2.4359255E0,2.6599586E1,6.27757E1,3.6113243E1,1.8426899E1,1.5044098E1,1.1555488E1,3.3649353E1,2.463888E0,1.6303087E1,2.1238122E0,1.3981326E1,1.0627723E0,7.1311088E0,4.4243793E0,5.6270285E0,2.8022326E1,1.3652184E0,1.0986695E0,3.8685684E0,1.2434518E1],"tree_param":{"num_deleted":"0","num_feature":"6","num_nodes":"33","size_leaf_vector":"1"}},{"base_weights":[1.7265674E-3,-9.9569595E-1,6.9903725E-1,-6.850858E-1,-5.132034E-2,1.1160176E0,6.11218E-1,-4.86277E-2,3.5870266E-1,5.680242E-1,1.252301E0,4.952826E-1,8.818831E-1,3.885197E-2,-7.2589885E-3,-5.1015593E-2,8.6692935E-1,1.3207455E0,7.502069E-1,4.266597E-1,6.0010666E-1,1.0571313E0,6.8039536E-1,-3.5829335E-2,2.8649801E-2,6.838273E-2,3.5483414E-1,6.9651596E-2,7.340233E-1,-1.39578795E-2,1.1576706E0,4.5874998E-1,9.603914E-2,-5.99469E-4,6.2155265E-1,2.4969164E-1,1.1860667E0,4.700953E-1,1.0540395E0,-3.8253262E-3,3.3541087E-2,1.2899152E-4,5.9669793E-2,1.3080972E-2,6.708597E-2,2.5059113E-2,1.2081154E-2,2.2284497E-2,-2.922657E-2,3.8186703E-2,2.5129065E-2,4.715255E-2,-2.6059031E-2,6.584424E-3,6.2475145E-2,1.2209392E-2,4.5272112E-2,6.276878E-2,2.0988768E-2],"categories":[],"categories_nodes":[],"categories_segments":[],"categories_sizes":[],"default_left":[0,0,0,0,0,0,0,0,0,0,0,0,0,0,0,0,0,0,0,0,0,0,0,0,0,0,0,0,0,0,0,0,0,0,0,0,0,0,0,0,0,0,0,0,0,0,0,0,0,0,0,0,0,0,0,0,0,0,0],"id":24,"left_children":[1,3,5,7,-1,9,11,-1,13,15,17,19,21,-1,-1,23,25,27,29,31,33,35,37,-1,-1,-1,39,-1,41,-1,43,45,47,-1,49,51,53,55,57,-1,-1,-1,-1,-1,-1,-1,-1,-1,-1,-1,-1,-1,-1,-1,-1,-1,-1,-1,-1],"loss_changes":[2.8527518E2,9.066925E-1,8.157593E0,5.807519E0,0E0,2.3345757E0,5.8897705E0,0E0,1.0948758E0,1.8858709E0,1.0309219E-1,7.757263E-1,1.3703804E0,0E0,0E0,2.1488822E0,1.2500577E0,1.09809875E-1,2.8957849E0,9.1235733E-1,7.200928E-1,2.8109055E0,1.888134E0,0E0,0E0,0E0,6.9140244E-1,0E0,1.6911781E0,0E0,4.0570116E-1,6.335068E-1,2.4593458E0,0E0,5.037155E-1,3.365009E0,1.538929E0,1.8653736E0,7.6530933E-1,0E0,0E0,0E0,0E0,0E0,0E0,0E0,0E0,0E0,0E0,0E0,0E0,0E0,0E0,0E0,0E0,0E0,0E0,0E0,0E0],"parents":[2147483647,0,0,1,1,2,2,3,3,5,5,6,6,8,8,9,9,10,10,11,11,12,12,15,15,16,16,17,17,18,18,19,19,20,20,21,21,22,22,26,26,28,28,30,30,31,31,32,32,34,34,35,35,36,36,37,37,38,38],"right_children":[2,4,6,8,-1,10,12,-1,14,16,18,20,22,-1,-1,24,26,28,30,32,34,36,38,-1,-1,-1,40,-1,42,-1,44,46,48,-1,50,52,54,56,58,-1,-1,-1,-1,-1,-1,-1,-1,-1,-1,-1,-1,-1,-1,-1,-1,-1,-1,-1,-1],"split_conditions":[6.999754E-1,3.6E1,5.2E1,2.1E1,-5.132034E-2,7E0,2.1E1,-4.86277E-2,2.2E1,3.17E2,4.3E1,8.907658E-1,2.86E2,3.885197E-2,-7.2589885E-3,2.9E1,1.7E1,9.5615906E-1,4.6E1,5.31E2,8E1,1.29E2,4.99E2,-3.5829335E-2,2.8649801E-2,6.838273E-2,1E0,6.9651596E-2,1.8E1,-1.39578795E-2,7.6588964E-1,1.7E1,8.190012E-1,-5.99469E-4,9.30383E-1,9.5E1,7.1439546E-1,9.159008E-1,3.2E2,-3.8253262E-3,3.3541087E-2,1.2899152E-4,5.9669793E-2,1.3080972E-2,6.708597E-2,2.5059113E-2,1.2081154E-2,2.2284497E-2,-2.922657E-2,3.8186703E-2,2.5129065E-2,4.715255E-2,-2.6059031E-2,6.584424E-3,6.2475145E-2,1.2209392E-2,4.5272112E-2,6.276878E-2,2.0988768E-2],"split_indices":[4,0,0,1,0,1,1,0,1,5,0,4,5,0,0,0,0,4,0,5,0,0,5,0,0,0,2,0,1,0,4,1,4,0,4,0,4,4,0,0,0,0,0,0,0,0,0,0,0,0,0,0,0,0,0,0,0,0,0],"split_type":[0,0,0,0,0,0,0,0,0,0,0,0,0,0,0,0,0,0,0,0,0,0,0,0,0,0,0,0,0,0,0,0,0,0,0,0,0,0,0,0,0,0,0,0,0,0,0,0,0,0,0,0,0,0,0,0,0,0,0],"sum_hessian":[4.0816415E2,1.6776613E2,2.4039801E2,1.7192146E1,1.5057399E2,3.9784866E1,2.0061314E2,1.3533227E1,3.658919E0,8.952992E0,3.0831873E1,1.4243369E2,5.817946E1,1.7029663E0,1.9559529E0,3.18536E0,5.7676325E0,2.5698261E1,5.1336117E0,8.914519E1,5.32885E1,2.884462E1,2.9334839E1,1.4695656E0,1.7157944E0,2.071461E0,3.6961718E0,2.1655905E1,4.042356E0,1.545116E0,3.5884955E0,8.0904945E1,8.24024E0,1.8187883E0,5.1469715E1,4.3761554E0,2.4468466E1,2.0215166E1,9.119672E0,1.8832761E0,1.8128957E0,1.9473201E0,2.095036E0,1.024096E0,2.5643995E0,6.658438E1,1.4320569E1,5.671543E0,2.5686963E0,2.0978752E1,3.0490961E1,2.1863194E0,2.1898358E0,1.5631475E0,2.2905317E1,1.4336609E1,5.8785577E0,6.1789947E0,2.9406772E0],"tree_param":{"num_deleted":"0","num_feature":"6","num_nodes":"59","size_leaf_vector":"1"}},{"base_weights":[8.2845865E-3,-9.823159E-1,6.693971E-1,-6.5482545E-1,-5.1450092E-2,3.710699E-2,1.560858E0,-4.9199987E-2,4.181304E-1,-4.7053167E-1,8.657698E-1,6.7013997E-1,7.87909E-2,-3.924076E-2,7.797997E-2,8.21068E-1,-5.170078E-2,6.8835534E-2,7.400436E-1,4.9190868E-2,2.1414862E-3,4.6986136E-1,1.0388398E0,2.1950056E-1,8.8652813E-1,3.4564104E-2,-3.731088E-2,2.0197576E-2,6.017683E-2,4.470971E-2,-1.4956327E-2,-3.845964E-2,4.839055E-2],"categories":[],"categories_nodes":[],"categories_segments":[],"categories_sizes":[],"default_left":[0,0,0,0,0,0,0,0,0,0,0,0,0,0,0,0,0,0,0,0,0,0,0,0,0,0,0,0,0,0,0,0,0],"id":25,"left_children":[1,3,5,7,-1,9,11,-1,13,15,17,19,-1,-1,-1,21,-1,-1,23,-1,-1,25,27,29,31,-1,-1,-1,-1,-1,-1,-1,-1],"loss_changes":[2.6423636E2,1.7953644E0,1.3633374E2,8.499553E0,0E0,6.0389412E1,2.8163147E-1,0E0,9.569864E0,6.5673935E1,2.4834442E0,6.265174E-1,0E0,0E0,0E0,1.6237812E0,0E0,0E0,3.306549E0,0E0,0E0,3.8531969E0,1.2096825E0,4.2608852E0,5.5225067E0,0E0,0E0,0E0,0E0,0E0,0E0,0E0,0E0],"parents":[2147483647,0,0,1,1,2,2,3,3,5,5,6,6,8,8,9,9,10,10,11,11,15,15,18,18,21,21,22,22,23,23,24,24],"right_children":[2,4,6,8,-1,10,12,-1,14,16,18,20,-1,-1,-1,22,-1,-1,24,-1,-1,26,28,30,32,-1,-1,-1,-1,-1,-1,-1,-1],"split_conditions":[6.999754E-1,4.8E1,7.9891926E-1,2.1E1,-5.1450092E-2,2.1E1,8.0250126E-1,-4.9199987E-2,7.8298604E-1,5E1,8.3E1,8.6560017E-1,7.87909E-2,-3.924076E-2,7.797997E-2,2.6E1,-5.170078E-2,6.8835534E-2,7.769401E-1,4.9190868E-2,2.1414862E-3,9.5615906E-1,7.6157147E-1,7.2722E-1,1.1E2,3.4564104E-2,-3.731088E-2,2.0197576E-2,6.017683E-2,4.470971E-2,-1.4956327E-2,-3.845964E-2,4.839055E-2],"split_indices":[4,0,3,1,0,1,3,0,3,0,0,4,0,0,0,0,0,0,4,0,0,4,4,4,0,0,0,0,0,0,0,0,0],"split_type":[0,0,0,0,0,0,0,0,0,0,0,0,0,0,0,0,0,0,0,0,0,0,0,0,0,0,0,0,0,0,0,0,0],"sum_hessian":[4.014728E2,1.6049852E2,2.4097427E2,2.190021E1,1.3859831E2,1.4158987E2,9.938441E1,1.68222E1,5.0780096E0,8.8070244E1,5.351963E1,2.398097E0,9.698631E1,2.6245546E0,2.453455E0,2.661259E1,6.145765E1,8.603928E0,4.4915703E1,1.2198288E0,1.1782682E0,1.139429E1,1.5218301E1,1.0412528E1,3.4503178E1,1.0004283E1,1.3900076E0,3.8458128E0,1.1372488E1,4.2106466E0,6.201881E0,1.2185385E0,3.3284637E1],"tree_param":{"num_deleted":"0","num_feature":"6","num_nodes":"33","size_leaf_vector":"1"}},{"base_weights":[-9.831029E-3,-9.7946864E-1,6.2588227E-1,-6.484186E-1,-5.1349085E-2,-9.077676E-3,1.5166737E0,-4.896853E-2,3.739237E-1,-4.715545E-1,7.3961896E-1,2.8060813E-2,7.660442E-2,-3.927512E-2,7.4967414E-2,7.201056E-1,-5.153346E-2,6.818273E-2,5.978476E-1,5.14004E-1,1.3236058E0,-2.4568133E-2,6.49679E-1,1.9388074E-3,4.0060937E-2,8.422523E-2,2.187035E-2,1.5414308E-2,4.3036718E-2],"categories":[],"categories_nodes":[],"categories_segments":[],"categories_sizes":[],"default_left":[0,0,0,0,0,0,0,0,0,0,0,0,0,0,0,0,0,0,0,0,0,0,0,0,0,0,0,0,0],"id":26,"left_children":[1,3,5,7,-1,9,11,-1,13,15,17,-1,-1,-1,-1,19,-1,-1,21,23,25,-1,27,-1,-1,-1,-1,-1,-1],"loss_changes":[2.415297E2,1.7746277E0,1.3388242E2,7.8730373E0,0E0,4.8538857E1,5.9091187E-1,0E0,9.201954E0,5.8470184E1,3.920761E0,0E0,0E0,0E0,0E0,2.8345032E0,0E0,0E0,2.8824482E0,3.067237E0,1.3609028E0,0E0,2.888462E0,0E0,0E0,0E0,0E0,0E0,0E0],"parents":[2147483647,0,0,1,1,2,2,3,3,5,5,6,6,8,8,9,9,10,10,15,15,18,18,19,19,20,20,22,22],"right_children":[2,4,6,8,-1,10,12,-1,14,16,18,-1,-1,-1,-1,20,-1,-1,22,24,26,-1,28,-1,-1,-1,-1,-1,-1],"split_conditions":[6.999754E-1,4.8E1,7.9891926E-1,2.1E1,-5.1349085E-2,2.1E1,8.0250126E-1,-4.896853E-2,7.8298604E-1,5E1,8.3E1,2.8060813E-2,7.660442E-2,-3.927512E-2,7.4967414E-2,5.01E2,-5.153346E-2,6.818273E-2,1.1E2,2.6E1,8.5853124E-1,-2.4568133E-2,8.3024794E-1,1.9388074E-3,4.0060937E-2,8.422523E-2,2.187035E-2,1.5414308E-2,4.3036718E-2],"split_indices":[4,0,3,1,0,1,3,0,3,0,0,0,0,0,0,5,0,0,0,0,4,0,4,0,0,0,0,0,0],"split_type":[0,0,0,0,0,0,0,0,0,0,0,0,0,0,0,0,0,0,0,0,0,0,0,0,0,0,0,0,0],"sum_hessian":[3.8983734E2,1.5416008E2,2.3567726E2,2.1186817E1,1.3297327E2,1.381752E2,9.750207E1,1.6037273E1,5.149544E0,8.564294E1,5.2532265E1,2.1419902E0,9.536008E1,2.6852283E0,2.4643157E0,2.725835E1,5.8384586E1,8.129577E0,4.4402687E1,2.1699461E1,5.558889E0,1.6317734E0,4.2770912E1,8.601823E0,1.3097639E1,3.3100655E0,2.2488232E0,1.728012E1,2.5490793E1],"tree_param":{"num_deleted":"0","num_feature":"6","num_nodes":"29","size_leaf_vector":"1"}},{"base_weights":[9.914369E-3,-9.756841E-1,6.241927E-1,-6.361191E-1,-5.1237E-2,1.0240524E0,5.4087055E-1,-4.873694E-2,3.9909214E-1,8.521097E-1,1.5062522E0,4.3955857E-1,7.5434995E-1,4.1099235E-2,-2.2216718E-1,9.24994E-1,-1.6296886E-2,8.183935E-2,3.1220833E-2,3.8014096E-1,5.3595656E-1,6.563779E-1,1.0491699E0,-2.8556848E-2,1.2715164E-2,4.382503E-1,5.31842E-2,4.0248048E-1,-8.9662306E-2,6.6765034E-1,4.109712E-1,6.880426E-2,5.894273E-1,6.5413885E-2,4.4867238E-1,-1.3017206E-3,4.1698266E-2,2.486166E-2,1.4131057E-2,1.2878907E-2,-2.229283E-2,-7.6930854E-3,3.6690533E-2,2.590234E-2,9.955823E-3,3.716175E-2,1.6146729E-2,3.9095055E-2,-3.3652862E-3],"categories":[],"categories_nodes":[],"categories_segments":[],"categories_sizes":[],"default_left":[0,0,0,0,0,0,0,0,0,0,0,0,0,0,0,0,0,0,0,0,0,0,0,0,0,0,0,0,0,0,0,0,0,0,0,0,0,0,0,0,0,0,0,0,0,0,0,0,0],"id":27,"left_children":[1,3,5,7,-1,9,11,-1,13,15,17,19,21,-1,23,25,-1,-1,-1,27,29,31,33,-1,-1,35,-1,37,39,41,43,-1,45,-1,47,-1,-1,-1,-1,-1,-1,-1,-1,-1,-1,-1,-1,-1,-1],"loss_changes":[2.3171146E2,1.7960052E0,7.3011017E0,7.8158197E0,0E0,1.9945412E0,3.9340477E0,0E0,1.740988E0,3.0015812E0,2.4282455E-2,5.7608414E-1,1.1044464E0,0E0,6.7558295E-1,1.5506306E0,0E0,0E0,0E0,9.5620155E-1,5.4001427E-1,1.5627728E0,1.5622177E0,0E0,0E0,1.5513293E0,0E0,8.120136E-1,7.0820576E-1,1.3353453E0,5.31713E-1,0E0,1.6791687E0,0E0,1.0301918E0,0E0,0E0,0E0,0E0,0E0,0E0,0E0,0E0,0E0,0E0,0E0,0E0,0E0,0E0],"parents":[2147483647,0,0,1,1,2,2,3,3,5,5,6,6,8,8,9,9,10,10,11,11,12,12,14,14,15,15,19,19,20,20,21,21,22,22,25,25,27,27,28,28,29,29,30,30,32,32,34,34],"right_children":[2,4,6,8,-1,10,12,-1,14,16,18,20,22,-1,24,26,-1,-1,-1,28,30,32,34,-1,-1,36,-1,38,40,42,44,-1,46,-1,48,-1,-1,-1,-1,-1,-1,-1,-1,-1,-1,-1,-1,-1,-1],"split_conditions":[6.999754E-1,4.8E1,5E1,2.1E1,-5.1237E-2,5.01E2,2.1E1,-4.873694E-2,2.06E2,4.78E2,3.8E1,9.001236E-1,9.3754953E-1,4.1099235E-2,4.4E2,8E0,-1.6296886E-2,8.183935E-2,3.1220833E-2,2E1,9.3754953E-1,7.0946E-1,2.3E1,-2.8556848E-2,1.2715164E-2,3.17E2,5.31842E-2,1E0,2.65E2,9.4E1,3.33E2,6.880426E-2,3.39E2,6.5413885E-2,3.12E2,-1.3017206E-3,4.1698266E-2,2.486166E-2,1.4131057E-2,1.2878907E-2,-2.229283E-2,-7.6930854E-3,3.6690533E-2,2.590234E-2,9.955823E-3,3.716175E-2,1.6146729E-2,3.9095055E-2,-3.3652862E-3],"split_indices":[4,0,0,1,0,5,1,0,5,5,0,4,4,0,5,1,0,0,0,1,4,4,1,0,0,5,0,2,5,5,5,0,5,0,0,0,0,0,0,0,0,0,0,0,0,0,0,0,0],"split_type":[0,0,0,0,0,0,0,0,0,0,0,0,0,0,0,0,0,0,0,0,0,0,0,0,0,0,0,0,0,0,0,0,0,0,0,0,0,0,0,0,0,0,0,0,0,0,0,0,0],"sum_hessian":[3.8071506E2,1.45951E2,2.3476407E2,2.018659E1,1.25764404E2,3.853689E1,1.9622719E2,1.525505E1,4.9315414E0,3.0447172E1,8.089714E0,1.3514824E2,6.107895E1,2.7419772E0,2.1895642E0,2.8875488E1,1.5716834E0,6.3009014E0,1.7888132E0,8.667013E1,4.8478107E1,4.826598E1,1.281297E1,1.1492003E0,1.0403639E0,7.325609E0,2.1549881E1,8.2872765E1,3.7973685E0,2.1491383E1,2.6986725E1,2.4436333E0,4.5822346E1,8.127425E0,4.685546E0,3.800622E0,3.524987E0,4.4525463E1,3.83473E1,2.0630445E0,1.7343241E0,1.5030043E0,1.9988379E1,1.696632E1,1.0020406E1,2.7919502E1,1.7902843E1,2.533795E0,2.1517506E0],"tree_param":{"num_deleted":"0","num_feature":"6","num_nodes":"49","size_leaf_vector":"1"}},{"base_weights":[7.979079E-3,-9.777198E-1,6.049759E-1,-6.019528E-1,-5.0863266E-2,1.2087889E-2,1.4643928E0,-4.7412675E-2,1.8026406E-1,8.4568757E-1,-2.3452707E-1,2.6387582E-2,7.400614E-2,5.0241756E-1,-1.1060483E-2,5.835286E-1,1.1700093E0,4.7805497E-1,-2.6756167E-1,3.9095175E-2,1.9107535E-3,2.3651482E-1,8.274815E-1,1.2738327E0,1.1877316E-2,-2.1590437E-1,5.1794063E-2,-3.8351282E-1,-1.5478461E-3,2.7675098E-2,-1.9745572E-2,4.9915176E-2,-6.0922285E-3,7.173222E-2,3.054352E-2,-3.2433353E-2,1.730333E-2,-1.0796051E-2,-2.6877208E-2,-2.892769E-2,5.96339E-3],"categories":[],"categories_nodes":[],"categories_segments":[],"categories_sizes":[],"default_left":[0,0,0,0,0,0,0,0,0,0,0,0,0,0,0,0,0,0,0,0,0,0,0,0,0,0,0,0,0,0,0,0,0,0,0,0,0,0,0,0,0],"id":28,"left_children":[1,3,5,7,-1,9,11,-1,13,15,17,-1,-1,19,-1,21,23,25,27,-1,-1,29,31,33,-1,35,-1,37,39,-1,-1,-1,-1,-1,-1,-1,-1,-1,-1,-1,-1],"loss_changes":[2.1925917E2,1.476181E0,1.1821825E2,4.4596043E0,0E0,2.8634653E1,6.144104E-1,0E0,8.481739E-1,2.0207424E0,2.6590786E0,0E0,0E0,4.1996247E-1,0E0,1.461698E0,9.770851E-1,2.2067456E0,3.1888676E0,0E0,0E0,2.1164927E0,1.9210544E0,3.672161E-1,0E0,9.809276E-1,0E0,1.7428322E0,2.327227E0,0E0,0E0,0E0,0E0,0E0,0E0,0E0,0E0,0E0,0E0,0E0,0E0],"parents":[2147483647,0,0,1,1,2,2,3,3,5,5,6,6,8,8,9,9,10,10,13,13,15,15,16,16,17,17,18,18,21,21,22,22,23,23,25,25,27,27,28,28],"right_children":[2,4,6,8,-1,10,12,-1,14,16,18,-1,-1,20,-1,22,24,26,28,-1,-1,30,32,34,-1,36,-1,38,40,-1,-1,-1,-1,-1,-1,-1,-1,-1,-1,-1,-1],"split_conditions":[6.999754E-1,3.6E1,7.9891926E-1,8.094803E-1,-5.0863266E-2,5E1,8.0250126E-1,-4.7412675E-2,2.06E2,3.77E2,7.0946E-1,2.6387582E-2,7.400614E-2,1.4950377E-1,-1.1060483E-2,2.8752714E-1,4.3E1,4.04E2,9.159008E-1,3.9095175E-2,1.9107535E-3,2.45E2,7.318391E-1,5.089327E-1,1.1877316E-2,3.103116E-1,5.1794063E-2,2.86E2,1.29E2,2.7675098E-2,-1.9745572E-2,4.9915176E-2,-6.0922285E-3,7.173222E-2,3.054352E-2,-3.2433353E-2,1.730333E-2,-1.0796051E-2,-2.6877208E-2,-2.892769E-2,5.96339E-3],"split_indices":[4,0,3,3,0,0,3,0,5,5,4,0,0,4,0,3,0,5,4,0,0,5,3,3,0,3,0,5,0,0,0,0,0,0,0,0,0,0,0,0,0],"split_type":[0,0,0,0,0,0,0,0,0,0,0,0,0,0,0,0,0,0,0,0,0,0,0,0,0,0,0,0,0,0,0,0,0,0,0,0,0,0,0,0,0],"sum_hessian":[3.705937E2,1.3954832E2,2.3104538E2,1.4832226E1,1.247161E2,1.3732364E2,9.3721725E1,1.0133632E1,4.698594E0,3.079665E1,1.0652699E2,2.1186342E0,9.1603096E1,2.4673176E0,2.2312768E0,1.8578398E1,1.2218252E1,4.122836E0,1.0240416E2,1.1128772E0,1.3544403E0,8.482243E0,1.0096155E1,1.0664714E1,1.5535377E0,2.1103837E0,2.0124524E0,7.101023E1,3.1393925E1,5.7293954E0,2.7528477E0,8.512773E0,1.5833822E0,7.6460547E0,3.0186594E0,1.1050982E0,1.0052856E0,3.515839E1,3.5851845E1,4.7793574E0,2.6614567E1],"tree_param":{"num_deleted":"0","num_feature":"6","num_nodes":"41","size_leaf_vector":"1"}},{"base_weights":[3.4986276E-3,-9.679717E-1,5.6741303E-1,-6.136316E-1,-5.1043708E-2,8.941647E-1,4.9281693E-1,-4.836485E-2,4.2781156E-1,4.9937198E-1,1.0195668E0,4.05684E-1,6.826371E-1,7.252688E-1,-5.9089516E-3,-9.536785E-2,7.956363E-1,1.2449716E0,7.9282176E-1,4.6792173E-1,3.3088803E-1,8.506618E-1,4.7896302E-1,4.2678863E-2,9.331677E-3,2.482109E-2,-3.2637917E-2,3.8960198E-1,6.702504E-2,8.098819E-2,6.8485826E-1,4.1354373E-1,1.1347893E0,5.05287E-1,1.8381785E-1,-1.231315E-2,3.443807E-1,2.422578E-1,1.0265843E0,7.9859763E-1,6.5626292E-3,4.248933E-2,-3.8469505E-2,4.3234188E-2,-5.4214075E-3,-1.5054904E-2,5.409428E-2,1.1013581E-2,6.1314274E-2,2.157431E-2,3.259335E-2,2.5362087E-2,-4.1696294E-3,1.2971836E-2,2.3565661E-2,-2.77016E-2,2.2191599E-2,2.2187717E-2,6.354104E-2,2.5534144E-2,7.152217E-2,3.6534034E-2,-1.7994465E-2],"categories":[],"categories_nodes":[],"categories_segments":[],"categories_sizes":[],"default_left":[0,0,0,0,0,0,0,0,0,0,0,0,0,0,0,0,0,0,0,0,0,0,0,0,0,0,0,0,0,0,0,0,0,0,0,0,0,0,0,0,0,0,0,0,0,0,0,0,0,0,0,0,0,0,0,0,0,0,0,0,0,0,0],"id":29,"left_children":[1,3,5,7,-1,9,11,-1,13,15,17,19,21,23,-1,25,27,29,31,33,35,37,39,-1,-1,-1,-1,41,-1,-1,43,45,47,49,51,-1,53,55,57,59,61,-1,-1,-1,-1,-1,-1,-1,-1,-1,-1,-1,-1,-1,-1,-1,-1,-1,-1,-1,-1,-1,-1],"loss_changes":[2.0011417E2,1.8885117E0,5.192787E0,7.7564197E0,0E0,1.556778E0,2.8720703E0,0E0,1.0190768E0,2.1937234E0,5.825138E-1,4.641037E-1,1.5923405E0,1.0748744E-1,0E0,1.9368956E0,1.2763686E0,1.755537E0,1.8734741E0,6.518707E-1,5.81645E-1,3.040514E0,4.328906E0,0E0,0E0,0E0,0E0,3.8902977E0,0E0,0E0,1.1213474E0,5.1677117E0,4.7669983E-1,3.8326168E-1,8.8286495E-1,0E0,5.544162E-1,1.5623779E0,2.785429E0,2.382433E0,3.6043155E0,0E0,0E0,0E0,0E0,0E0,0E0,0E0,0E0,0E0,0E0,0E0,0E0,0E0,0E0,0E0,0E0,0E0,0E0,0E0,0E0,0E0,0E0],"parents":[2147483647,0,0,1,1,2,2,3,3,5,5,6,6,8,8,9,9,10,10,11,11,12,12,13,13,15,15,16,16,17,17,18,18,19,19,20,20,21,21,22,22,27,27,30,30,31,31,32,32,33,33,34,34,36,36,37,37,38,38,39,39,40,40],"right_children":[2,4,6,8,-1,10,12,-1,14,16,18,20,22,24,-1,26,28,30,32,34,36,38,40,-1,-1,-1,-1,42,-1,-1,44,46,48,50,52,-1,54,56,58,60,62,-1,-1,-1,-1,-1,-1,-1,-1,-1,-1,-1,-1,-1,-1,-1,-1,-1,-1,-1,-1,-1,-1],"split_conditions":[6.999754E-1,4.8E1,5.2E1,2.1E1,-5.1043708E-2,8E0,2.1E1,-4.836485E-2,2.3754764E-1,3.17E2,8.3024794E-1,1E0,1E0,2.2E1,-5.9089516E-3,9.7E1,9.262599E-1,1E0,1E0,9.4929767E-1,1.3E1,1.66E2,2.86E2,4.2678863E-2,9.331677E-3,2.482109E-2,-3.2637917E-2,8.51052E-1,6.702504E-2,8.098819E-2,4.3E1,1.7E1,1E1,8.868799E-1,2.24E2,-1.231315E-2,9.001236E-1,5.5E1,8.025166E-1,4.67E2,7.827846E-1,4.248933E-2,-3.8469505E-2,4.3234188E-2,-5.4214075E-3,-1.5054904E-2,5.409428E-2,1.1013581E-2,6.1314274E-2,2.157431E-2,3.259335E-2,2.5362087E-2,-4.1696294E-3,1.2971836E-2,2.3565661E-2,-2.77016E-2,2.2191599E-2,2.2187717E-2,6.354104E-2,2.5534144E-2,7.152217E-2,3.6534034E-2,-1.7994465E-2],"split_indices":[4,0,0,1,0,1,1,0,4,5,4,2,2,1,0,5,4,2,2,4,5,0,0,0,0,0,0,4,0,0,0,1,0,4,0,0,4,5,4,5,4,0,0,0,0,0,0,0,0,0,0,0,0,0,0,0,0,0,0,0,0,0,0],"split_type":[0,0,0,0,0,0,0,0,0,0,0,0,0,0,0,0,0,0,0,0,0,0,0,0,0,0,0,0,0,0,0,0,0,0,0,0,0,0,0,0,0,0,0,0,0,0,0,0,0,0,0,0,0,0,0,0,0,0,0,0,0,0,0],"sum_hessian":[3.6328516E2,1.331638E2,2.3012134E2,1.8935247E1,1.1422856E2,4.0729248E1,1.8939209E2,1.4188236E1,4.7470107E0,1.1019539E1,2.9709707E1,1.3195717E2,5.7434925E1,2.8603373E0,1.8866737E0,3.8895361E0,7.130003E0,1.2646918E1,1.706279E1,6.915626E1,6.280091E1,2.9731112E1,2.7703812E1,1.8378408E0,1.0224965E0,1.9396081E0,1.9499282E0,5.068207E0,2.0617962E0,6.443494E0,6.2034245E0,9.137571E0,7.925219E0,6.043E1,8.726257E0,1.0405269E0,6.1760384E1,7.2017865E0,2.2529325E1,1.611178E1,1.1592031E1,3.8187413E0,1.2494656E0,4.983697E0,1.2197275E0,4.681375E0,4.456196E0,1.0306957E0,6.894523E0,4.2816322E1,1.7613676E1,3.5414739E0,5.184784E0,3.882342E1,2.2936962E1,1.1015894E0,6.1001973E0,7.484855E0,1.504447E1,1.2310475E1,3.8013058E0,3.5611594E0,8.030871E0],"tree_param":{"num_deleted":"0","num_feature":"6","num_nodes":"63","size_leaf_vector":"1"}},{"base_weights":[-1.34095065E-2,-4.9467985E-2,5.3054434E-1,-5.6276746E-2,1.4182703E0,-4.8565394E-1,6.2979865E-1,5.575284E-1,7.171049E-2,-3.2395408E-1,-6.317396E-1,3.2457688E-1,7.1481276E-1,4.3474182E-2,-5.882073E-4,-4.5208946E-1,3.6554765E-2,-6.8474567E-1,6.53817E-2,1.0071698E0,-2.346704E-1,7.549704E-1,-9.459725E-3,1.4668087E-2,-2.6745657E-2,-1.7434675E-2,3.1704072E-2,-3.592618E-2,1.1022766E-2,2.171961E-2,-1.5347557E-2,8.826305E-3,6.2654234E-2,-4.2764857E-2,1.2016773E-2,3.1753268E-2,6.1305672E-2],"categories":[],"categories_nodes":[],"categories_segments":[],"categories_sizes":[],"default_left":[0,0,0,0,0,0,0,0,0,0,0,0,0,0,0,0,0,0,0,0,0,0,0,0,0,0,0,0,0,0,0,0,0,0,0,0,0],"id":30,"left_children":[1,-1,3,5,7,9,11,13,-1,15,17,19,21,-1,-1,23,25,27,29,31,33,35,-1,-1,-1,-1,-1,-1,-1,-1,-1,-1,-1,-1,-1,-1,-1],"loss_changes":[1.9029826E2,0E0,1.1999426E2,4.1413433E1,4.5776367E-1,1.8361263E0,1.1731014E0,5.966816E-1,0E0,2.0055318E0,1.6830349E0,5.438936E0,1.6502056E0,0E0,0E0,2.122858E0,3.033189E0,1.4208717E0,6.89195E-1,1.0710902E0,2.6530569E0,1.4785728E0,0E0,0E0,0E0,0E0,0E0,0E0,0E0,0E0,0E0,0E0,0E0,0E0,0E0,0E0,0E0],"parents":[2147483647,0,0,2,2,3,3,4,4,5,5,6,6,7,7,9,9,10,10,11,11,12,12,15,15,16,16,17,17,18,18,19,19,20,20,21,21],"right_children":[2,-1,4,6,8,10,12,14,-1,16,18,20,22,-1,-1,24,26,28,30,32,34,36,-1,-1,-1,-1,-1,-1,-1,-1,-1,-1,-1,-1,-1,-1,-1],"split_conditions":[6.999754E-1,-4.9467985E-2,7.9891926E-1,2.1E1,8.0250126E-1,3.5592943E-1,1.6363396E-1,8.6560017E-1,7.171049E-2,2.5619128E-1,5.57E2,2.74E2,5.64E2,4.3474182E-2,-5.882073E-4,7.230094E-1,4.13E2,7.8779906E-1,8.403621E-1,8.3657384E-1,4.22E2,4.8E2,-9.459725E-3,1.4668087E-2,-2.6745657E-2,-1.7434675E-2,3.1704072E-2,-3.592618E-2,1.1022766E-2,2.171961E-2,-1.5347557E-2,8.826305E-3,6.2654234E-2,-4.2764857E-2,1.2016773E-2,3.1753268E-2,6.1305672E-2],"split_indices":[4,0,3,1,3,3,3,4,0,3,5,5,5,0,0,4,5,3,4,4,5,5,0,0,0,0,0,0,0,0,0,0,0,0,0,0,0],"split_type":[0,0,0,0,0,0,0,0,0,0,0,0,0,0,0,0,0,0,0,0,0,0,0,0,0,0,0,0,0,0,0,0,0,0,0,0,0],"sum_hessian":[3.5647488E2,1.27284676E2,2.2919022E2,1.3854393E2,9.064628E1,8.539314E1,5.3150787E1,2.3022146E0,8.834406E1,4.2057716E1,4.333543E1,1.2628667E1,4.052212E1,1.1466043E0,1.1556104E0,3.0841658E1,1.1216059E1,4.028973E1,3.0456994E0,5.3264704E0,7.3021965E0,3.8956467E1,1.5656542E0,2.8298347E0,2.8011824E1,7.0725527E0,4.143506E0,3.9039192E1,1.2505376E0,1.4459622E0,1.5997372E0,1.6091081E0,3.7173624E0,2.818732E0,4.4834642E0,3.2925034E1,6.0314345E0],"tree_param":{"num_deleted":"0","num_feature":"6","num_nodes":"37","size_leaf_vector":"1"}},{"base_weights":[7.2854775E-4,-9.700968E-1,5.265785E-1,-6.390093E-1,-5.08666E-2,9.1688615E-1,4.53431E-1,-4.788442E-2,3.1174538E-1,4.3390664E-1,1.0840927E0,3.6594585E-1,6.4269286E-1,3.9609406E-2,-2.8641714E-2,-3.3388205E-3,8.8850075E-1,8.5727113E-1,6.866754E-2,-1.7225513E-2,3.7717468E-1,7.3285663E-1,3.7598282E-1,1.3674959E-2,-1.5737195E-2,4.5498645E-1,-4.110726E-2,5.4716416E-2,1.4256351E-2,1.0002168E0,-4.3311007E-2,3.2356527E-1,4.6322367E-1,5.02642E-1,9.1005355E-1,-7.8572094E-2,8.812901E-1,-3.7206132E-2,5.5899944E-2,6.782517E-2,3.5522576E-2,-1.4146249E-2,1.1610514E-2,2.0790325E-2,1.0546836E-2,-1.9849539E-4,2.4164759E-2,-2.4788383E-2,3.2809533E-2,5.7446122E-2,2.2416389E-2,1.772537E-2,-3.3036288E-2,6.1904967E-2,1.7251542E-2],"categories":[],"categories_nodes":[],"categories_segments":[],"categories_sizes":[],"default_left":[0,0,0,0,0,0,0,0,0,0,0,0,0,0,0,0,0,0,0,0,0,0,0,0,0,0,0,0,0,0,0,0,0,0,0,0,0,0,0,0,0,0,0,0,0,0,0,0,0,0,0,0,0,0,0],"id":31,"left_children":[1,3,5,7,-1,9,11,-1,13,15,17,19,21,-1,23,25,27,29,-1,-1,31,33,35,-1,-1,37,-1,-1,-1,39,41,43,45,47,49,51,53,-1,-1,-1,-1,-1,-1,-1,-1,-1,-1,-1,-1,-1,-1,-1,-1,-1,-1],"loss_changes":[1.7996147E2,1.2868729E0,6.1124725E0,5.798594E0,0E0,2.3650837E0,2.9860573E0,0E0,8.9131504E-1,2.1291556E0,4.9009514E-1,1.2098637E0,1.1715984E0,0E0,4.382519E-1,2.7941241E0,3.3974218E-1,2.2196512E0,0E0,0E0,4.6706772E-1,1.334238E0,4.0331135E0,0E0,0E0,4.6306987E0,0E0,0E0,0E0,5.4679966E-1,2.8186178E-1,8.028364E-1,4.6160316E-1,3.5962706E0,2.086071E0,2.7562077E0,1.152225E0,0E0,0E0,0E0,0E0,0E0,0E0,0E0,0E0,0E0,0E0,0E0,0E0,0E0,0E0,0E0,0E0,0E0,0E0],"parents":[2147483647,0,0,1,1,2,2,3,3,5,5,6,6,8,8,9,9,10,10,11,11,12,12,14,14,15,15,16,16,17,17,20,20,21,21,22,22,25,25,29,29,30,30,31,31,32,32,33,33,34,34,35,35,36,36],"right_children":[2,4,6,8,-1,10,12,-1,14,16,18,20,22,-1,24,26,28,30,-1,-1,32,34,36,-1,-1,38,-1,-1,-1,40,42,44,46,48,50,52,54,-1,-1,-1,-1,-1,-1,-1,-1,-1,-1,-1,-1,-1,-1,-1,-1,-1,-1],"split_conditions":[6.999754E-1,4.8E1,4.3E1,2.1E1,-5.08666E-2,8E0,2.1E1,-4.788442E-2,9.7674794E-2,4.67E2,4.03E2,4.6E1,3.78E2,3.9609406E-2,2.2E1,8.8319826E-1,3E1,3.56E2,6.866754E-2,-1.7225513E-2,9.001236E-1,1.94E2,4.33E2,1.3674959E-2,-1.5737195E-2,7.6588964E-1,-4.110726E-2,5.4716416E-2,1.4256351E-2,1.1E2,2.5E1,1E0,1E0,5.5E1,3.86E2,3.33E2,1E0,-3.7206132E-2,5.5899944E-2,6.782517E-2,3.5522576E-2,-1.4146249E-2,1.1610514E-2,2.0790325E-2,1.0546836E-2,-1.9849539E-4,2.4164759E-2,-2.4788383E-2,3.2809533E-2,5.7446122E-2,2.2416389E-2,1.772537E-2,-3.3036288E-2,6.1904967E-2,1.7251542E-2],"split_indices":[4,0,0,1,0,1,1,0,4,5,5,0,0,0,1,4,0,5,0,0,4,0,0,0,0,4,0,0,0,5,0,2,1,5,5,5,2,0,0,0,0,0,0,0,0,0,0,0,0,0,0,0,0,0,0],"split_type":[0,0,0,0,0,0,0,0,0,0,0,0,0,0,0,0,0,0,0,0,0,0,0,0,0,0,0,0,0,0,0,0,0,0,0,0,0,0,0,0,0,0,0,0,0,0,0,0,0,0,0,0,0,0,0],"sum_hessian":[3.5051358E2,1.228545E2,2.2765907E2,1.71528E1,1.057017E2,3.4111053E1,1.9354802E2,1.2841291E1,4.311507E0,9.696772E0,2.441428E1,1.3436989E2,5.917813E1,1.2375041E0,3.074003E0,5.4486823E0,4.2480893E0,1.5905596E1,8.508684E0,1.6288723E0,1.3274101E2,4.292065E1,1.6257479E1,1.5165193E0,1.5574838E0,3.778182E0,1.6705005E0,2.5608354E0,1.6872541E0,1.3631318E1,2.2742774E0,8.471992E1,4.80211E1,2.0336306E1,2.2584347E1,9.003123E0,7.2543564E0,1.301672E0,2.47651E0,4.462717E0,9.168601E0,1.2020302E0,1.0722473E0,4.50955E1,3.9624416E1,2.0111377E0,4.6009964E1,2.4136243E0,1.7922682E1,1.39033E1,8.6810465E0,5.38679E0,3.6163335E0,3.570135E0,3.684221E0],"tree_param":{"num_deleted":"0","num_feature":"6","num_nodes":"55","size_leaf_vector":"1"}},{"base_weights":[-1.4835718E-3,-9.5497334E-1,4.9040452E-1,-5.63579E-1,-5.0772186E-2,-4.4638716E-2,6.9748E-2,-4.756498E-2,3.7765324E-1,-4.6918893E-1,6.0021365E-1,-3.8249284E-2,7.117015E-2,6.240411E-1,-1.0043242E0,5.599602E-2,4.8751333E-1,4.8871487E-1,5.8603644E-2,-5.1436115E-2,3.9955596E-3,3.766942E-1,8.650884E-1,1.7311884E-2,5.612067E-2,2.1783644E-2,-3.1084886E-2,5.6896817E-2,1.6781017E-2],"categories":[],"categories_nodes":[],"categories_segments":[],"categories_sizes":[],"default_left":[0,0,0,0,0,0,0,0,0,0,0,0,0,0,0,0,0,0,0,0,0,0,0,0,0,0,0,0,0],"id":32,"left_children":[1,3,5,7,-1,9,-1,-1,11,13,15,-1,-1,17,19,-1,21,23,-1,-1,-1,25,27,-1,-1,-1,-1,-1,-1],"loss_changes":[1.6153217E2,2.2017746E0,1.1002341E2,6.903481E0,0E0,3.963083E1,0E0,0E0,8.195791E0,5.1658943E1,2.8218098E0,0E0,0E0,1.598958E0,1.6415443E0,0E0,1.72538E0,1.8866043E0,0E0,0E0,0E0,2.6068282E0,1.1136231E0,0E0,0E0,0E0,0E0,0E0,0E0],"parents":[2147483647,0,0,1,1,2,2,3,3,5,5,8,8,9,9,10,10,13,13,14,14,16,16,17,17,21,21,22,22],"right_children":[2,4,6,8,-1,10,-1,-1,12,14,16,-1,-1,18,20,-1,22,24,-1,-1,-1,26,28,-1,-1,-1,-1,-1,-1],"split_conditions":[6.999754E-1,4.8E1,8.0250126E-1,2.1E1,-5.0772186E-2,2.1E1,6.9748E-2,-4.756498E-2,7.8298604E-1,5E1,8.3E1,-3.8249284E-2,7.117015E-2,5.15E2,7.9891926E-1,5.599602E-2,9.3754953E-1,4.6E1,5.8603644E-2,-5.1436115E-2,3.9955596E-3,9.30383E-1,3.12E2,1.7311884E-2,5.612067E-2,2.1783644E-2,-3.1084886E-2,5.6896817E-2,1.6781017E-2],"split_indices":[4,0,3,1,0,1,0,0,3,0,0,0,0,5,3,0,4,0,0,0,0,4,0,0,0,0,0,0,0],"split_type":[0,0,0,0,0,0,0,0,0,0,0,0,0,0,0,0,0,0,0,0,0,0,0,0,0,0,0,0,0],"sum_hessian":[3.424122E2,1.1620864E2,2.2620355E2,1.6932556E1,9.927609E1,1.4272977E2,8.347379E1,1.1984925E1,4.9476304E0,8.623066E1,5.6499104E1,2.4925861E0,2.4550443E0,2.8283682E1,5.794698E1,8.475948E0,4.8023155E1,2.4199766E1,4.0839148E0,5.6721794E1,1.2251854E0,3.8670845E1,9.35231E0,2.1020102E1,3.1796649E0,3.7046024E1,1.6248194E0,5.41343E0,3.9388804E0],"tree_param":{"num_deleted":"0","num_feature":"6","num_nodes":"29","size_leaf_vector":"1"}},{"base_weights":[1.5605763E-2,-9.5226836E-1,5.043497E-1,-5.5768466E-1,-5.0687082E-2,-3.402376E-2,1.3531911E0,-4.74385E-2,4.3400162E-1,-4.7341818E-1,6.253457E-1,5.617028E-1,6.841454E-2,-3.6579832E-2,6.875829E-2,6.041815E-1,-5.127728E-2,6.433304E-2,5.019648E-1,4.1821565E-2,2.0138002E-3,8.80363E-1,3.2623014E-1,6.287684E-2,4.215695E-1,5.5733394E-2,4.9375664E-3,-1.4430302E-2,4.105547E-2,1.1773788E-3,2.7670383E-2],"categories":[],"categories_nodes":[],"categories_segments":[],"categories_sizes":[],"default_left":[0,0,0,0,0,0,0,0,0,0,0,0,0,0,0,0,0,0,0,0,0,0,0,0,0,0,0,0,0,0,0],"id":33,"left_children":[1,3,5,7,-1,9,11,-1,13,15,17,19,-1,-1,-1,21,-1,-1,23,-1,-1,25,27,-1,29,-1,-1,-1,-1,-1,-1],"loss_changes":[1.5871292E2,2.165474E0,1.01918015E2,7.159342E0,0E0,4.0098106E1,2.6567078E-1,0E0,7.156825E0,5.000873E1,3.8718796E0,4.4139206E-1,0E0,0E0,0E0,1.9199533E0,0E0,0E0,2.4039783E0,0E0,0E0,2.4232826E0,5.080601E0,0E0,2.356802E0,0E0,0E0,0E0,0E0,0E0,0E0],"parents":[2147483647,0,0,1,1,2,2,3,3,5,5,6,6,8,8,9,9,10,10,11,11,15,15,18,18,21,21,22,22,24,24],"right_children":[2,4,6,8,-1,10,12,-1,14,16,18,20,-1,-1,-1,22,-1,-1,24,-1,-1,26,28,-1,30,-1,-1,-1,-1,-1,-1],"split_conditions":[6.999754E-1,4.8E1,7.9891926E-1,2.1E1,-5.0687082E-2,2.1E1,8.0250126E-1,-4.74385E-2,7.8298604E-1,5E1,8.3E1,8.3657384E-1,6.841454E-2,-3.6579832E-2,6.875829E-2,8.3657384E-1,-5.127728E-2,6.433304E-2,5.2854218E-2,4.1821565E-2,2.0138002E-3,3.8E1,1E0,6.287684E-2,7.769401E-1,5.5733394E-2,4.9375664E-3,-1.4430302E-2,4.105547E-2,1.1773788E-3,2.7670383E-2],"split_indices":[4,0,3,1,0,1,3,0,3,0,0,4,0,0,0,4,0,0,3,0,0,0,2,0,4,0,0,0,0,0,0],"split_type":[0,0,0,0,0,0,0,0,0,0,0,0,0,0,0,0,0,0,0,0,0,0,0,0,0,0,0,0,0,0,0],"sum_hessian":[3.3349976E2,1.1158207E2,2.219177E2,1.6398102E1,9.518397E1,1.3637956E2,8.553814E1,1.179131E1,4.606791E0,8.2010765E1,5.4368793E1,2.316422E0,8.322172E1,2.1574876E0,2.4493034E0,2.7752094E1,5.4258675E1,7.0661635E0,4.730263E1,1.1214392E0,1.1949828E0,1.2833243E1,1.4918851E1,3.1409953E0,4.4161636E1,9.545623E0,3.2876205E0,6.8389635E0,8.079887E0,1.1281423E1,3.2880215E1],"tree_param":{"num_deleted":"0","num_feature":"6","num_nodes":"31","size_leaf_vector":"1"}},{"base_weights":[6.761135E-3,-9.547154E-1,4.760186E-1,-5.8261126E-1,-5.0600715E-2,-5.2053288E-2,1.3255118E0,-4.7220018E-2,3.5998264E-1,-4.30096E-1,5.051758E-1,5.1276636E-1,6.708173E-2,-3.6355235E-2,6.5572254E-2,5.8277446E-1,-5.1106352E-2,5.8673736E-2,4.3009874E-1,4.098018E-2,-1.3697881E-3,2.6902795E-1,1.0028034E0,3.201156E-1,8.0264556E-1,-7.1821064E-3,2.5823778E-2,6.292628E-2,2.503503E-2,2.4022227E-2,6.129163E-4,-2.4159485E-2,5.0118603E-2],"categories":[],"categories_nodes":[],"categories_segments":[],"categories_sizes":[],"default_left":[0,0,0,0,0,0,0,0,0,0,0,0,0,0,0,0,0,0,0,0,0,0,0,0,0,0,0,0,0,0,0,0,0],"id":34,"left_children":[1,3,5,7,-1,9,11,-1,13,15,17,19,-1,-1,-1,21,-1,-1,23,-1,-1,25,27,29,31,-1,-1,-1,-1,-1,-1,-1,-1],"loss_changes":[1.4726918E2,1.6930084E0,9.8464584E1,6.0154347E0,0E0,2.8913431E1,4.1433716E-1,0E0,6.4769287E0,4.9587555E1,2.281043E0,5.619261E-1,0E0,0E0,0E0,3.785881E0,0E0,0E0,1.8529282E0,0E0,0E0,2.012636E0,1.0123653E0,2.038518E0,3.3281546E0,0E0,0E0,0E0,0E0,0E0,0E0,0E0,0E0],"parents":[2147483647,0,0,1,1,2,2,3,3,5,5,6,6,8,8,9,9,10,10,11,11,15,15,18,18,21,21,22,22,23,23,24,24],"right_children":[2,4,6,8,-1,10,12,-1,14,16,18,20,-1,-1,-1,22,-1,-1,24,-1,-1,26,28,30,32,-1,-1,-1,-1,-1,-1,-1,-1],"split_conditions":[6.999754E-1,4.8E1,7.9891926E-1,2.1E1,-5.0600715E-2,2.1E1,8.0250126E-1,-4.7220018E-2,7.795525E-1,5E1,4.8E1,8.3657384E-1,6.708173E-2,-3.6355235E-2,6.5572254E-2,3.74E2,-5.1106352E-2,5.8673736E-2,9.3754953E-1,4.098018E-2,-1.3697881E-3,2.6E1,4.4991216E-1,5.163145E-1,1.29E2,-7.1821064E-3,2.5823778E-2,6.292628E-2,2.503503E-2,2.4022227E-2,6.129163E-4,-2.4159485E-2,5.0118603E-2],"split_indices":[4,0,3,1,0,1,3,0,3,0,0,4,0,0,0,5,0,0,4,0,0,0,3,3,0,0,0,0,0,0,0,0,0],"split_type":[0,0,0,0,0,0,0,0,0,0,0,0,0,0,0,0,0,0,0,0,0,0,0,0,0,0,0,0,0,0,0,0,0],"sum_hessian":[3.2440164E2,1.0605915E2,2.1834247E2,1.56426115E1,9.041654E1,1.3522256E2,8.311991E1,1.1302526E1,4.340085E0,8.070069E1,5.4521873E1,2.2548966E0,8.086501E1,2.1357267E0,2.204358E0,2.9775393E1,5.09253E1,4.0288453E0,5.0493027E1,1.10811E0,1.1467868E0,1.7983135E1,1.1792256E1,4.0419624E1,1.0073402E1,6.8982997E0,1.1084836E1,6.8149023E0,4.977354E0,2.620942E1,1.4210207E1,1.1635071E0,8.909896E0],"tree_param":{"num_deleted":"0","num_feature":"6","num_nodes":"33","size_leaf_vector":"1"}},{"base_weights":[1.3161906E-3,-3.908663E-1,6.9257325E-1,-7.033843E-1,2.2630152E-1,3.4830388E-2,1.3183947E-2,1.1506657E-1,-5.0867595E-2,6.246564E-1,1.4094763E-1,-2.145703E-2,6.197695E-1,2.5008006E-3,6.860551E-1,-2.7032933E-1,2.6176348E-1,8.041155E-1,